c at_least_1_color
1 2 3 4 5 6 0
7 8 9 10 11 12 0
13 14 15 16 17 18 0
19 20 21 22 23 24 0
25 26 27 28 29 30 0
31 32 33 34 35 36 0
37 38 39 40 41 42 0
43 44 45 46 47 48 0
49 50 51 52 53 54 0
c at_most_1_color
-1 -2 0
-1 -3 0
-1 -4 0
-1 -5 0
-1 -6 0
-2 -3 0
-2 -4 0
-2 -5 0
-2 -6 0
-3 -4 0
-3 -5 0
-3 -6 0
-4 -5 0
-4 -6 0
-5 -6 0
-7 -8 0
-7 -9 0
-7 -10 0
-7 -11 0
-7 -12 0
-8 -9 0
-8 -10 0
-8 -11 0
-8 -12 0
-9 -10 0
-9 -11 0
-9 -12 0
-10 -11 0
-10 -12 0
-11 -12 0
-13 -14 0
-13 -15 0
-13 -16 0
-13 -17 0
-13 -18 0
-14 -15 0
-14 -16 0
-14 -17 0
-14 -18 0
-15 -16 0
-15 -17 0
-15 -18 0
-16 -17 0
-16 -18 0
-17 -18 0
-19 -20 0
-19 -21 0
-19 -22 0
-19 -23 0
-19 -24 0
-20 -21 0
-20 -22 0
-20 -23 0
-20 -24 0
-21 -22 0
-21 -23 0
-21 -24 0
-22 -23 0
-22 -24 0
-23 -24 0
-25 -26 0
-25 -27 0
-25 -28 0
-25 -29 0
-25 -30 0
-26 -27 0
-26 -28 0
-26 -29 0
-26 -30 0
-27 -28 0
-27 -29 0
-27 -30 0
-28 -29 0
-28 -30 0
-29 -30 0
-31 -32 0
-31 -33 0
-31 -34 0
-31 -35 0
-31 -36 0
-32 -33 0
-32 -34 0
-32 -35 0
-32 -36 0
-33 -34 0
-33 -35 0
-33 -36 0
-34 -35 0
-34 -36 0
-35 -36 0
-37 -38 0
-37 -39 0
-37 -40 0
-37 -41 0
-37 -42 0
-38 -39 0
-38 -40 0
-38 -41 0
-38 -42 0
-39 -40 0
-39 -41 0
-39 -42 0
-40 -41 0
-40 -42 0
-41 -42 0
-43 -44 0
-43 -45 0
-43 -46 0
-43 -47 0
-43 -48 0
-44 -45 0
-44 -46 0
-44 -47 0
-44 -48 0
-45 -46 0
-45 -47 0
-45 -48 0
-46 -47 0
-46 -48 0
-47 -48 0
-49 -50 0
-49 -51 0
-49 -52 0
-49 -53 0
-49 -54 0
-50 -51 0
-50 -52 0
-50 -53 0
-50 -54 0
-51 -52 0
-51 -53 0
-51 -54 0
-52 -53 0
-52 -54 0
-53 -54 0
c separate_colors
55 0
-56 0
57 0
58 0
59 0
60 0
c child_colored_when_parent_colored
-1 -13 97 0
-1 13 -97 0
-1 -14 98 0
-1 14 -98 0
-1 -15 99 0
-1 15 -99 0
-1 -16 100 0
-1 16 -100 0
-1 -17 101 0
-1 17 -101 0
-1 -18 102 0
-1 18 -102 0
-2 -13 103 0
-2 13 -103 0
-2 -14 104 0
-2 14 -104 0
-2 -15 105 0
-2 15 -105 0
-2 -16 106 0
-2 16 -106 0
-2 -17 107 0
-2 17 -107 0
-2 -18 108 0
-2 18 -108 0
-3 -13 109 0
-3 13 -109 0
-3 -14 110 0
-3 14 -110 0
-3 -15 111 0
-3 15 -111 0
-3 -16 112 0
-3 16 -112 0
-3 -17 113 0
-3 17 -113 0
-3 -18 114 0
-3 18 -114 0
-4 -13 115 0
-4 13 -115 0
-4 -14 116 0
-4 14 -116 0
-4 -15 117 0
-4 15 -117 0
-4 -16 118 0
-4 16 -118 0
-4 -17 119 0
-4 17 -119 0
-4 -18 120 0
-4 18 -120 0
-5 -13 121 0
-5 13 -121 0
-5 -14 122 0
-5 14 -122 0
-5 -15 123 0
-5 15 -123 0
-5 -16 124 0
-5 16 -124 0
-5 -17 125 0
-5 17 -125 0
-5 -18 126 0
-5 18 -126 0
-6 -13 127 0
-6 13 -127 0
-6 -14 128 0
-6 14 -128 0
-6 -15 129 0
-6 15 -129 0
-6 -16 130 0
-6 16 -130 0
-6 -17 131 0
-6 17 -131 0
-6 -18 132 0
-6 18 -132 0
-1 -19 385 0
-1 19 -385 0
-1 -20 386 0
-1 20 -386 0
-1 -21 387 0
-1 21 -387 0
-1 -22 388 0
-1 22 -388 0
-1 -23 389 0
-1 23 -389 0
-1 -24 390 0
-1 24 -390 0
-2 -19 391 0
-2 19 -391 0
-2 -20 392 0
-2 20 -392 0
-2 -21 393 0
-2 21 -393 0
-2 -22 394 0
-2 22 -394 0
-2 -23 395 0
-2 23 -395 0
-2 -24 396 0
-2 24 -396 0
-3 -19 397 0
-3 19 -397 0
-3 -20 398 0
-3 20 -398 0
-3 -21 399 0
-3 21 -399 0
-3 -22 400 0
-3 22 -400 0
-3 -23 401 0
-3 23 -401 0
-3 -24 402 0
-3 24 -402 0
-4 -19 403 0
-4 19 -403 0
-4 -20 404 0
-4 20 -404 0
-4 -21 405 0
-4 21 -405 0
-4 -22 406 0
-4 22 -406 0
-4 -23 407 0
-4 23 -407 0
-4 -24 408 0
-4 24 -408 0
-5 -19 409 0
-5 19 -409 0
-5 -20 410 0
-5 20 -410 0
-5 -21 411 0
-5 21 -411 0
-5 -22 412 0
-5 22 -412 0
-5 -23 413 0
-5 23 -413 0
-5 -24 414 0
-5 24 -414 0
-6 -19 415 0
-6 19 -415 0
-6 -20 416 0
-6 20 -416 0
-6 -21 417 0
-6 21 -417 0
-6 -22 418 0
-6 22 -418 0
-6 -23 419 0
-6 23 -419 0
-6 -24 420 0
-6 24 -420 0
-1 -7 241 0
-1 7 -241 0
-1 -8 242 0
-1 8 -242 0
-1 -9 243 0
-1 9 -243 0
-1 -10 244 0
-1 10 -244 0
-1 -11 245 0
-1 11 -245 0
-1 -12 246 0
-1 12 -246 0
-2 -7 247 0
-2 7 -247 0
-2 -8 248 0
-2 8 -248 0
-2 -9 249 0
-2 9 -249 0
-2 -10 250 0
-2 10 -250 0
-2 -11 251 0
-2 11 -251 0
-2 -12 252 0
-2 12 -252 0
-3 -7 253 0
-3 7 -253 0
-3 -8 254 0
-3 8 -254 0
-3 -9 255 0
-3 9 -255 0
-3 -10 256 0
-3 10 -256 0
-3 -11 257 0
-3 11 -257 0
-3 -12 258 0
-3 12 -258 0
-4 -7 259 0
-4 7 -259 0
-4 -8 260 0
-4 8 -260 0
-4 -9 261 0
-4 9 -261 0
-4 -10 262 0
-4 10 -262 0
-4 -11 263 0
-4 11 -263 0
-4 -12 264 0
-4 12 -264 0
-5 -7 265 0
-5 7 -265 0
-5 -8 266 0
-5 8 -266 0
-5 -9 267 0
-5 9 -267 0
-5 -10 268 0
-5 10 -268 0
-5 -11 269 0
-5 11 -269 0
-5 -12 270 0
-5 12 -270 0
-6 -7 271 0
-6 7 -271 0
-6 -8 272 0
-6 8 -272 0
-6 -9 273 0
-6 9 -273 0
-6 -10 274 0
-6 10 -274 0
-6 -11 275 0
-6 11 -275 0
-6 -12 276 0
-6 12 -276 0
-1 -7 205 0
-1 7 -205 0
-1 -8 206 0
-1 8 -206 0
-1 -9 207 0
-1 9 -207 0
-1 -10 208 0
-1 10 -208 0
-1 -11 209 0
-1 11 -209 0
-1 -12 210 0
-1 12 -210 0
-2 -7 211 0
-2 7 -211 0
-2 -8 212 0
-2 8 -212 0
-2 -9 213 0
-2 9 -213 0
-2 -10 214 0
-2 10 -214 0
-2 -11 215 0
-2 11 -215 0
-2 -12 216 0
-2 12 -216 0
-3 -7 217 0
-3 7 -217 0
-3 -8 218 0
-3 8 -218 0
-3 -9 219 0
-3 9 -219 0
-3 -10 220 0
-3 10 -220 0
-3 -11 221 0
-3 11 -221 0
-3 -12 222 0
-3 12 -222 0
-4 -7 223 0
-4 7 -223 0
-4 -8 224 0
-4 8 -224 0
-4 -9 225 0
-4 9 -225 0
-4 -10 226 0
-4 10 -226 0
-4 -11 227 0
-4 11 -227 0
-4 -12 228 0
-4 12 -228 0
-5 -7 229 0
-5 7 -229 0
-5 -8 230 0
-5 8 -230 0
-5 -9 231 0
-5 9 -231 0
-5 -10 232 0
-5 10 -232 0
-5 -11 233 0
-5 11 -233 0
-5 -12 234 0
-5 12 -234 0
-6 -7 235 0
-6 7 -235 0
-6 -8 236 0
-6 8 -236 0
-6 -9 237 0
-6 9 -237 0
-6 -10 238 0
-6 10 -238 0
-6 -11 239 0
-6 11 -239 0
-6 -12 240 0
-6 12 -240 0
-1 -7 349 0
-1 7 -349 0
-1 -8 350 0
-1 8 -350 0
-1 -9 351 0
-1 9 -351 0
-1 -10 352 0
-1 10 -352 0
-1 -11 353 0
-1 11 -353 0
-1 -12 354 0
-1 12 -354 0
-2 -7 355 0
-2 7 -355 0
-2 -8 356 0
-2 8 -356 0
-2 -9 357 0
-2 9 -357 0
-2 -10 358 0
-2 10 -358 0
-2 -11 359 0
-2 11 -359 0
-2 -12 360 0
-2 12 -360 0
-3 -7 361 0
-3 7 -361 0
-3 -8 362 0
-3 8 -362 0
-3 -9 363 0
-3 9 -363 0
-3 -10 364 0
-3 10 -364 0
-3 -11 365 0
-3 11 -365 0
-3 -12 366 0
-3 12 -366 0
-4 -7 367 0
-4 7 -367 0
-4 -8 368 0
-4 8 -368 0
-4 -9 369 0
-4 9 -369 0
-4 -10 370 0
-4 10 -370 0
-4 -11 371 0
-4 11 -371 0
-4 -12 372 0
-4 12 -372 0
-5 -7 373 0
-5 7 -373 0
-5 -8 374 0
-5 8 -374 0
-5 -9 375 0
-5 9 -375 0
-5 -10 376 0
-5 10 -376 0
-5 -11 377 0
-5 11 -377 0
-5 -12 378 0
-5 12 -378 0
-6 -7 379 0
-6 7 -379 0
-6 -8 380 0
-6 8 -380 0
-6 -9 381 0
-6 9 -381 0
-6 -10 382 0
-6 10 -382 0
-6 -11 383 0
-6 11 -383 0
-6 -12 384 0
-6 12 -384 0
-1 -7 61 0
-1 7 -61 0
-1 -8 62 0
-1 8 -62 0
-1 -9 63 0
-1 9 -63 0
-1 -10 64 0
-1 10 -64 0
-1 -11 65 0
-1 11 -65 0
-1 -12 66 0
-1 12 -66 0
-2 -7 67 0
-2 7 -67 0
-2 -8 68 0
-2 8 -68 0
-2 -9 69 0
-2 9 -69 0
-2 -10 70 0
-2 10 -70 0
-2 -11 71 0
-2 11 -71 0
-2 -12 72 0
-2 12 -72 0
-3 -7 73 0
-3 7 -73 0
-3 -8 74 0
-3 8 -74 0
-3 -9 75 0
-3 9 -75 0
-3 -10 76 0
-3 10 -76 0
-3 -11 77 0
-3 11 -77 0
-3 -12 78 0
-3 12 -78 0
-4 -7 79 0
-4 7 -79 0
-4 -8 80 0
-4 8 -80 0
-4 -9 81 0
-4 9 -81 0
-4 -10 82 0
-4 10 -82 0
-4 -11 83 0
-4 11 -83 0
-4 -12 84 0
-4 12 -84 0
-5 -7 85 0
-5 7 -85 0
-5 -8 86 0
-5 8 -86 0
-5 -9 87 0
-5 9 -87 0
-5 -10 88 0
-5 10 -88 0
-5 -11 89 0
-5 11 -89 0
-5 -12 90 0
-5 12 -90 0
-6 -7 91 0
-6 7 -91 0
-6 -8 92 0
-6 8 -92 0
-6 -9 93 0
-6 9 -93 0
-6 -10 94 0
-6 10 -94 0
-6 -11 95 0
-6 11 -95 0
-6 -12 96 0
-6 12 -96 0
-1 -7 457 0
-1 7 -457 0
-1 -8 458 0
-1 8 -458 0
-1 -9 459 0
-1 9 -459 0
-1 -10 460 0
-1 10 -460 0
-1 -11 461 0
-1 11 -461 0
-1 -12 462 0
-1 12 -462 0
-2 -7 463 0
-2 7 -463 0
-2 -8 464 0
-2 8 -464 0
-2 -9 465 0
-2 9 -465 0
-2 -10 466 0
-2 10 -466 0
-2 -11 467 0
-2 11 -467 0
-2 -12 468 0
-2 12 -468 0
-3 -7 469 0
-3 7 -469 0
-3 -8 470 0
-3 8 -470 0
-3 -9 471 0
-3 9 -471 0
-3 -10 472 0
-3 10 -472 0
-3 -11 473 0
-3 11 -473 0
-3 -12 474 0
-3 12 -474 0
-4 -7 475 0
-4 7 -475 0
-4 -8 476 0
-4 8 -476 0
-4 -9 477 0
-4 9 -477 0
-4 -10 478 0
-4 10 -478 0
-4 -11 479 0
-4 11 -479 0
-4 -12 480 0
-4 12 -480 0
-5 -7 481 0
-5 7 -481 0
-5 -8 482 0
-5 8 -482 0
-5 -9 483 0
-5 9 -483 0
-5 -10 484 0
-5 10 -484 0
-5 -11 485 0
-5 11 -485 0
-5 -12 486 0
-5 12 -486 0
-6 -7 487 0
-6 7 -487 0
-6 -8 488 0
-6 8 -488 0
-6 -9 489 0
-6 9 -489 0
-6 -10 490 0
-6 10 -490 0
-6 -11 491 0
-6 11 -491 0
-6 -12 492 0
-6 12 -492 0
-1 -7 133 0
-1 7 -133 0
-1 -8 134 0
-1 8 -134 0
-1 -9 135 0
-1 9 -135 0
-1 -10 136 0
-1 10 -136 0
-1 -11 137 0
-1 11 -137 0
-1 -12 138 0
-1 12 -138 0
-2 -7 139 0
-2 7 -139 0
-2 -8 140 0
-2 8 -140 0
-2 -9 141 0
-2 9 -141 0
-2 -10 142 0
-2 10 -142 0
-2 -11 143 0
-2 11 -143 0
-2 -12 144 0
-2 12 -144 0
-3 -7 145 0
-3 7 -145 0
-3 -8 146 0
-3 8 -146 0
-3 -9 147 0
-3 9 -147 0
-3 -10 148 0
-3 10 -148 0
-3 -11 149 0
-3 11 -149 0
-3 -12 150 0
-3 12 -150 0
-4 -7 151 0
-4 7 -151 0
-4 -8 152 0
-4 8 -152 0
-4 -9 153 0
-4 9 -153 0
-4 -10 154 0
-4 10 -154 0
-4 -11 155 0
-4 11 -155 0
-4 -12 156 0
-4 12 -156 0
-5 -7 157 0
-5 7 -157 0
-5 -8 158 0
-5 8 -158 0
-5 -9 159 0
-5 9 -159 0
-5 -10 160 0
-5 10 -160 0
-5 -11 161 0
-5 11 -161 0
-5 -12 162 0
-5 12 -162 0
-6 -7 163 0
-6 7 -163 0
-6 -8 164 0
-6 8 -164 0
-6 -9 165 0
-6 9 -165 0
-6 -10 166 0
-6 10 -166 0
-6 -11 167 0
-6 11 -167 0
-6 -12 168 0
-6 12 -168 0
-1 -7 313 0
-1 7 -313 0
-1 -8 314 0
-1 8 -314 0
-1 -9 315 0
-1 9 -315 0
-1 -10 316 0
-1 10 -316 0
-1 -11 317 0
-1 11 -317 0
-1 -12 318 0
-1 12 -318 0
-2 -7 319 0
-2 7 -319 0
-2 -8 320 0
-2 8 -320 0
-2 -9 321 0
-2 9 -321 0
-2 -10 322 0
-2 10 -322 0
-2 -11 323 0
-2 11 -323 0
-2 -12 324 0
-2 12 -324 0
-3 -7 325 0
-3 7 -325 0
-3 -8 326 0
-3 8 -326 0
-3 -9 327 0
-3 9 -327 0
-3 -10 328 0
-3 10 -328 0
-3 -11 329 0
-3 11 -329 0
-3 -12 330 0
-3 12 -330 0
-4 -7 331 0
-4 7 -331 0
-4 -8 332 0
-4 8 -332 0
-4 -9 333 0
-4 9 -333 0
-4 -10 334 0
-4 10 -334 0
-4 -11 335 0
-4 11 -335 0
-4 -12 336 0
-4 12 -336 0
-5 -7 337 0
-5 7 -337 0
-5 -8 338 0
-5 8 -338 0
-5 -9 339 0
-5 9 -339 0
-5 -10 340 0
-5 10 -340 0
-5 -11 341 0
-5 11 -341 0
-5 -12 342 0
-5 12 -342 0
-6 -7 343 0
-6 7 -343 0
-6 -8 344 0
-6 8 -344 0
-6 -9 345 0
-6 9 -345 0
-6 -10 346 0
-6 10 -346 0
-6 -11 347 0
-6 11 -347 0
-6 -12 348 0
-6 12 -348 0
-1 -7 421 0
-1 7 -421 0
-1 -8 422 0
-1 8 -422 0
-1 -9 423 0
-1 9 -423 0
-1 -10 424 0
-1 10 -424 0
-1 -11 425 0
-1 11 -425 0
-1 -12 426 0
-1 12 -426 0
-2 -7 427 0
-2 7 -427 0
-2 -8 428 0
-2 8 -428 0
-2 -9 429 0
-2 9 -429 0
-2 -10 430 0
-2 10 -430 0
-2 -11 431 0
-2 11 -431 0
-2 -12 432 0
-2 12 -432 0
-3 -7 433 0
-3 7 -433 0
-3 -8 434 0
-3 8 -434 0
-3 -9 435 0
-3 9 -435 0
-3 -10 436 0
-3 10 -436 0
-3 -11 437 0
-3 11 -437 0
-3 -12 438 0
-3 12 -438 0
-4 -7 439 0
-4 7 -439 0
-4 -8 440 0
-4 8 -440 0
-4 -9 441 0
-4 9 -441 0
-4 -10 442 0
-4 10 -442 0
-4 -11 443 0
-4 11 -443 0
-4 -12 444 0
-4 12 -444 0
-5 -7 445 0
-5 7 -445 0
-5 -8 446 0
-5 8 -446 0
-5 -9 447 0
-5 9 -447 0
-5 -10 448 0
-5 10 -448 0
-5 -11 449 0
-5 11 -449 0
-5 -12 450 0
-5 12 -450 0
-6 -7 451 0
-6 7 -451 0
-6 -8 452 0
-6 8 -452 0
-6 -9 453 0
-6 9 -453 0
-6 -10 454 0
-6 10 -454 0
-6 -11 455 0
-6 11 -455 0
-6 -12 456 0
-6 12 -456 0
-1 -1 169 0
-1 1 -169 0
-1 -2 170 0
-1 2 -170 0
-1 -3 171 0
-1 3 -171 0
-1 -4 172 0
-1 4 -172 0
-1 -5 173 0
-1 5 -173 0
-1 -6 174 0
-1 6 -174 0
-2 -1 175 0
-2 1 -175 0
-2 -2 176 0
-2 2 -176 0
-2 -3 177 0
-2 3 -177 0
-2 -4 178 0
-2 4 -178 0
-2 -5 179 0
-2 5 -179 0
-2 -6 180 0
-2 6 -180 0
-3 -1 181 0
-3 1 -181 0
-3 -2 182 0
-3 2 -182 0
-3 -3 183 0
-3 3 -183 0
-3 -4 184 0
-3 4 -184 0
-3 -5 185 0
-3 5 -185 0
-3 -6 186 0
-3 6 -186 0
-4 -1 187 0
-4 1 -187 0
-4 -2 188 0
-4 2 -188 0
-4 -3 189 0
-4 3 -189 0
-4 -4 190 0
-4 4 -190 0
-4 -5 191 0
-4 5 -191 0
-4 -6 192 0
-4 6 -192 0
-5 -1 193 0
-5 1 -193 0
-5 -2 194 0
-5 2 -194 0
-5 -3 195 0
-5 3 -195 0
-5 -4 196 0
-5 4 -196 0
-5 -5 197 0
-5 5 -197 0
-5 -6 198 0
-5 6 -198 0
-6 -1 199 0
-6 1 -199 0
-6 -2 200 0
-6 2 -200 0
-6 -3 201 0
-6 3 -201 0
-6 -4 202 0
-6 4 -202 0
-6 -5 203 0
-6 5 -203 0
-6 -6 204 0
-6 6 -204 0
-1 -1 277 0
-1 1 -277 0
-1 -2 278 0
-1 2 -278 0
-1 -3 279 0
-1 3 -279 0
-1 -4 280 0
-1 4 -280 0
-1 -5 281 0
-1 5 -281 0
-1 -6 282 0
-1 6 -282 0
-2 -1 283 0
-2 1 -283 0
-2 -2 284 0
-2 2 -284 0
-2 -3 285 0
-2 3 -285 0
-2 -4 286 0
-2 4 -286 0
-2 -5 287 0
-2 5 -287 0
-2 -6 288 0
-2 6 -288 0
-3 -1 289 0
-3 1 -289 0
-3 -2 290 0
-3 2 -290 0
-3 -3 291 0
-3 3 -291 0
-3 -4 292 0
-3 4 -292 0
-3 -5 293 0
-3 5 -293 0
-3 -6 294 0
-3 6 -294 0
-4 -1 295 0
-4 1 -295 0
-4 -2 296 0
-4 2 -296 0
-4 -3 297 0
-4 3 -297 0
-4 -4 298 0
-4 4 -298 0
-4 -5 299 0
-4 5 -299 0
-4 -6 300 0
-4 6 -300 0
-5 -1 301 0
-5 1 -301 0
-5 -2 302 0
-5 2 -302 0
-5 -3 303 0
-5 3 -303 0
-5 -4 304 0
-5 4 -304 0
-5 -5 305 0
-5 5 -305 0
-5 -6 306 0
-5 6 -306 0
-6 -1 307 0
-6 1 -307 0
-6 -2 308 0
-6 2 -308 0
-6 -3 309 0
-6 3 -309 0
-6 -4 310 0
-6 4 -310 0
-6 -5 311 0
-6 5 -311 0
-6 -6 312 0
-6 6 -312 0
-13 -25 313 0
-13 25 -313 0
-13 -26 314 0
-13 26 -314 0
-13 -27 315 0
-13 27 -315 0
-13 -28 316 0
-13 28 -316 0
-13 -29 317 0
-13 29 -317 0
-13 -30 318 0
-13 30 -318 0
-14 -25 319 0
-14 25 -319 0
-14 -26 320 0
-14 26 -320 0
-14 -27 321 0
-14 27 -321 0
-14 -28 322 0
-14 28 -322 0
-14 -29 323 0
-14 29 -323 0
-14 -30 324 0
-14 30 -324 0
-15 -25 325 0
-15 25 -325 0
-15 -26 326 0
-15 26 -326 0
-15 -27 327 0
-15 27 -327 0
-15 -28 328 0
-15 28 -328 0
-15 -29 329 0
-15 29 -329 0
-15 -30 330 0
-15 30 -330 0
-16 -25 331 0
-16 25 -331 0
-16 -26 332 0
-16 26 -332 0
-16 -27 333 0
-16 27 -333 0
-16 -28 334 0
-16 28 -334 0
-16 -29 335 0
-16 29 -335 0
-16 -30 336 0
-16 30 -336 0
-17 -25 337 0
-17 25 -337 0
-17 -26 338 0
-17 26 -338 0
-17 -27 339 0
-17 27 -339 0
-17 -28 340 0
-17 28 -340 0
-17 -29 341 0
-17 29 -341 0
-17 -30 342 0
-17 30 -342 0
-18 -25 343 0
-18 25 -343 0
-18 -26 344 0
-18 26 -344 0
-18 -27 345 0
-18 27 -345 0
-18 -28 346 0
-18 28 -346 0
-18 -29 347 0
-18 29 -347 0
-18 -30 348 0
-18 30 -348 0
-13 -31 205 0
-13 31 -205 0
-13 -32 206 0
-13 32 -206 0
-13 -33 207 0
-13 33 -207 0
-13 -34 208 0
-13 34 -208 0
-13 -35 209 0
-13 35 -209 0
-13 -36 210 0
-13 36 -210 0
-14 -31 211 0
-14 31 -211 0
-14 -32 212 0
-14 32 -212 0
-14 -33 213 0
-14 33 -213 0
-14 -34 214 0
-14 34 -214 0
-14 -35 215 0
-14 35 -215 0
-14 -36 216 0
-14 36 -216 0
-15 -31 217 0
-15 31 -217 0
-15 -32 218 0
-15 32 -218 0
-15 -33 219 0
-15 33 -219 0
-15 -34 220 0
-15 34 -220 0
-15 -35 221 0
-15 35 -221 0
-15 -36 222 0
-15 36 -222 0
-16 -31 223 0
-16 31 -223 0
-16 -32 224 0
-16 32 -224 0
-16 -33 225 0
-16 33 -225 0
-16 -34 226 0
-16 34 -226 0
-16 -35 227 0
-16 35 -227 0
-16 -36 228 0
-16 36 -228 0
-17 -31 229 0
-17 31 -229 0
-17 -32 230 0
-17 32 -230 0
-17 -33 231 0
-17 33 -231 0
-17 -34 232 0
-17 34 -232 0
-17 -35 233 0
-17 35 -233 0
-17 -36 234 0
-17 36 -234 0
-18 -31 235 0
-18 31 -235 0
-18 -32 236 0
-18 32 -236 0
-18 -33 237 0
-18 33 -237 0
-18 -34 238 0
-18 34 -238 0
-18 -35 239 0
-18 35 -239 0
-18 -36 240 0
-18 36 -240 0
-13 -49 421 0
-13 49 -421 0
-13 -50 422 0
-13 50 -422 0
-13 -51 423 0
-13 51 -423 0
-13 -52 424 0
-13 52 -424 0
-13 -53 425 0
-13 53 -425 0
-13 -54 426 0
-13 54 -426 0
-14 -49 427 0
-14 49 -427 0
-14 -50 428 0
-14 50 -428 0
-14 -51 429 0
-14 51 -429 0
-14 -52 430 0
-14 52 -430 0
-14 -53 431 0
-14 53 -431 0
-14 -54 432 0
-14 54 -432 0
-15 -49 433 0
-15 49 -433 0
-15 -50 434 0
-15 50 -434 0
-15 -51 435 0
-15 51 -435 0
-15 -52 436 0
-15 52 -436 0
-15 -53 437 0
-15 53 -437 0
-15 -54 438 0
-15 54 -438 0
-16 -49 439 0
-16 49 -439 0
-16 -50 440 0
-16 50 -440 0
-16 -51 441 0
-16 51 -441 0
-16 -52 442 0
-16 52 -442 0
-16 -53 443 0
-16 53 -443 0
-16 -54 444 0
-16 54 -444 0
-17 -49 445 0
-17 49 -445 0
-17 -50 446 0
-17 50 -446 0
-17 -51 447 0
-17 51 -447 0
-17 -52 448 0
-17 52 -448 0
-17 -53 449 0
-17 53 -449 0
-17 -54 450 0
-17 54 -450 0
-18 -49 451 0
-18 49 -451 0
-18 -50 452 0
-18 50 -452 0
-18 -51 453 0
-18 51 -453 0
-18 -52 454 0
-18 52 -454 0
-18 -53 455 0
-18 53 -455 0
-18 -54 456 0
-18 54 -456 0
-13 -7 133 0
-13 7 -133 0
-13 -8 134 0
-13 8 -134 0
-13 -9 135 0
-13 9 -135 0
-13 -10 136 0
-13 10 -136 0
-13 -11 137 0
-13 11 -137 0
-13 -12 138 0
-13 12 -138 0
-14 -7 139 0
-14 7 -139 0
-14 -8 140 0
-14 8 -140 0
-14 -9 141 0
-14 9 -141 0
-14 -10 142 0
-14 10 -142 0
-14 -11 143 0
-14 11 -143 0
-14 -12 144 0
-14 12 -144 0
-15 -7 145 0
-15 7 -145 0
-15 -8 146 0
-15 8 -146 0
-15 -9 147 0
-15 9 -147 0
-15 -10 148 0
-15 10 -148 0
-15 -11 149 0
-15 11 -149 0
-15 -12 150 0
-15 12 -150 0
-16 -7 151 0
-16 7 -151 0
-16 -8 152 0
-16 8 -152 0
-16 -9 153 0
-16 9 -153 0
-16 -10 154 0
-16 10 -154 0
-16 -11 155 0
-16 11 -155 0
-16 -12 156 0
-16 12 -156 0
-17 -7 157 0
-17 7 -157 0
-17 -8 158 0
-17 8 -158 0
-17 -9 159 0
-17 9 -159 0
-17 -10 160 0
-17 10 -160 0
-17 -11 161 0
-17 11 -161 0
-17 -12 162 0
-17 12 -162 0
-18 -7 163 0
-18 7 -163 0
-18 -8 164 0
-18 8 -164 0
-18 -9 165 0
-18 9 -165 0
-18 -10 166 0
-18 10 -166 0
-18 -11 167 0
-18 11 -167 0
-18 -12 168 0
-18 12 -168 0
-13 -7 277 0
-13 7 -277 0
-13 -8 278 0
-13 8 -278 0
-13 -9 279 0
-13 9 -279 0
-13 -10 280 0
-13 10 -280 0
-13 -11 281 0
-13 11 -281 0
-13 -12 282 0
-13 12 -282 0
-14 -7 283 0
-14 7 -283 0
-14 -8 284 0
-14 8 -284 0
-14 -9 285 0
-14 9 -285 0
-14 -10 286 0
-14 10 -286 0
-14 -11 287 0
-14 11 -287 0
-14 -12 288 0
-14 12 -288 0
-15 -7 289 0
-15 7 -289 0
-15 -8 290 0
-15 8 -290 0
-15 -9 291 0
-15 9 -291 0
-15 -10 292 0
-15 10 -292 0
-15 -11 293 0
-15 11 -293 0
-15 -12 294 0
-15 12 -294 0
-16 -7 295 0
-16 7 -295 0
-16 -8 296 0
-16 8 -296 0
-16 -9 297 0
-16 9 -297 0
-16 -10 298 0
-16 10 -298 0
-16 -11 299 0
-16 11 -299 0
-16 -12 300 0
-16 12 -300 0
-17 -7 301 0
-17 7 -301 0
-17 -8 302 0
-17 8 -302 0
-17 -9 303 0
-17 9 -303 0
-17 -10 304 0
-17 10 -304 0
-17 -11 305 0
-17 11 -305 0
-17 -12 306 0
-17 12 -306 0
-18 -7 307 0
-18 7 -307 0
-18 -8 308 0
-18 8 -308 0
-18 -9 309 0
-18 9 -309 0
-18 -10 310 0
-18 10 -310 0
-18 -11 311 0
-18 11 -311 0
-18 -12 312 0
-18 12 -312 0
-13 -7 385 0
-13 7 -385 0
-13 -8 386 0
-13 8 -386 0
-13 -9 387 0
-13 9 -387 0
-13 -10 388 0
-13 10 -388 0
-13 -11 389 0
-13 11 -389 0
-13 -12 390 0
-13 12 -390 0
-14 -7 391 0
-14 7 -391 0
-14 -8 392 0
-14 8 -392 0
-14 -9 393 0
-14 9 -393 0
-14 -10 394 0
-14 10 -394 0
-14 -11 395 0
-14 11 -395 0
-14 -12 396 0
-14 12 -396 0
-15 -7 397 0
-15 7 -397 0
-15 -8 398 0
-15 8 -398 0
-15 -9 399 0
-15 9 -399 0
-15 -10 400 0
-15 10 -400 0
-15 -11 401 0
-15 11 -401 0
-15 -12 402 0
-15 12 -402 0
-16 -7 403 0
-16 7 -403 0
-16 -8 404 0
-16 8 -404 0
-16 -9 405 0
-16 9 -405 0
-16 -10 406 0
-16 10 -406 0
-16 -11 407 0
-16 11 -407 0
-16 -12 408 0
-16 12 -408 0
-17 -7 409 0
-17 7 -409 0
-17 -8 410 0
-17 8 -410 0
-17 -9 411 0
-17 9 -411 0
-17 -10 412 0
-17 10 -412 0
-17 -11 413 0
-17 11 -413 0
-17 -12 414 0
-17 12 -414 0
-18 -7 415 0
-18 7 -415 0
-18 -8 416 0
-18 8 -416 0
-18 -9 417 0
-18 9 -417 0
-18 -10 418 0
-18 10 -418 0
-18 -11 419 0
-18 11 -419 0
-18 -12 420 0
-18 12 -420 0
-13 -7 349 0
-13 7 -349 0
-13 -8 350 0
-13 8 -350 0
-13 -9 351 0
-13 9 -351 0
-13 -10 352 0
-13 10 -352 0
-13 -11 353 0
-13 11 -353 0
-13 -12 354 0
-13 12 -354 0
-14 -7 355 0
-14 7 -355 0
-14 -8 356 0
-14 8 -356 0
-14 -9 357 0
-14 9 -357 0
-14 -10 358 0
-14 10 -358 0
-14 -11 359 0
-14 11 -359 0
-14 -12 360 0
-14 12 -360 0
-15 -7 361 0
-15 7 -361 0
-15 -8 362 0
-15 8 -362 0
-15 -9 363 0
-15 9 -363 0
-15 -10 364 0
-15 10 -364 0
-15 -11 365 0
-15 11 -365 0
-15 -12 366 0
-15 12 -366 0
-16 -7 367 0
-16 7 -367 0
-16 -8 368 0
-16 8 -368 0
-16 -9 369 0
-16 9 -369 0
-16 -10 370 0
-16 10 -370 0
-16 -11 371 0
-16 11 -371 0
-16 -12 372 0
-16 12 -372 0
-17 -7 373 0
-17 7 -373 0
-17 -8 374 0
-17 8 -374 0
-17 -9 375 0
-17 9 -375 0
-17 -10 376 0
-17 10 -376 0
-17 -11 377 0
-17 11 -377 0
-17 -12 378 0
-17 12 -378 0
-18 -7 379 0
-18 7 -379 0
-18 -8 380 0
-18 8 -380 0
-18 -9 381 0
-18 9 -381 0
-18 -10 382 0
-18 10 -382 0
-18 -11 383 0
-18 11 -383 0
-18 -12 384 0
-18 12 -384 0
-13 -7 241 0
-13 7 -241 0
-13 -8 242 0
-13 8 -242 0
-13 -9 243 0
-13 9 -243 0
-13 -10 244 0
-13 10 -244 0
-13 -11 245 0
-13 11 -245 0
-13 -12 246 0
-13 12 -246 0
-14 -7 247 0
-14 7 -247 0
-14 -8 248 0
-14 8 -248 0
-14 -9 249 0
-14 9 -249 0
-14 -10 250 0
-14 10 -250 0
-14 -11 251 0
-14 11 -251 0
-14 -12 252 0
-14 12 -252 0
-15 -7 253 0
-15 7 -253 0
-15 -8 254 0
-15 8 -254 0
-15 -9 255 0
-15 9 -255 0
-15 -10 256 0
-15 10 -256 0
-15 -11 257 0
-15 11 -257 0
-15 -12 258 0
-15 12 -258 0
-16 -7 259 0
-16 7 -259 0
-16 -8 260 0
-16 8 -260 0
-16 -9 261 0
-16 9 -261 0
-16 -10 262 0
-16 10 -262 0
-16 -11 263 0
-16 11 -263 0
-16 -12 264 0
-16 12 -264 0
-17 -7 265 0
-17 7 -265 0
-17 -8 266 0
-17 8 -266 0
-17 -9 267 0
-17 9 -267 0
-17 -10 268 0
-17 10 -268 0
-17 -11 269 0
-17 11 -269 0
-17 -12 270 0
-17 12 -270 0
-18 -7 271 0
-18 7 -271 0
-18 -8 272 0
-18 8 -272 0
-18 -9 273 0
-18 9 -273 0
-18 -10 274 0
-18 10 -274 0
-18 -11 275 0
-18 11 -275 0
-18 -12 276 0
-18 12 -276 0
-13 -7 61 0
-13 7 -61 0
-13 -8 62 0
-13 8 -62 0
-13 -9 63 0
-13 9 -63 0
-13 -10 64 0
-13 10 -64 0
-13 -11 65 0
-13 11 -65 0
-13 -12 66 0
-13 12 -66 0
-14 -7 67 0
-14 7 -67 0
-14 -8 68 0
-14 8 -68 0
-14 -9 69 0
-14 9 -69 0
-14 -10 70 0
-14 10 -70 0
-14 -11 71 0
-14 11 -71 0
-14 -12 72 0
-14 12 -72 0
-15 -7 73 0
-15 7 -73 0
-15 -8 74 0
-15 8 -74 0
-15 -9 75 0
-15 9 -75 0
-15 -10 76 0
-15 10 -76 0
-15 -11 77 0
-15 11 -77 0
-15 -12 78 0
-15 12 -78 0
-16 -7 79 0
-16 7 -79 0
-16 -8 80 0
-16 8 -80 0
-16 -9 81 0
-16 9 -81 0
-16 -10 82 0
-16 10 -82 0
-16 -11 83 0
-16 11 -83 0
-16 -12 84 0
-16 12 -84 0
-17 -7 85 0
-17 7 -85 0
-17 -8 86 0
-17 8 -86 0
-17 -9 87 0
-17 9 -87 0
-17 -10 88 0
-17 10 -88 0
-17 -11 89 0
-17 11 -89 0
-17 -12 90 0
-17 12 -90 0
-18 -7 91 0
-18 7 -91 0
-18 -8 92 0
-18 8 -92 0
-18 -9 93 0
-18 9 -93 0
-18 -10 94 0
-18 10 -94 0
-18 -11 95 0
-18 11 -95 0
-18 -12 96 0
-18 12 -96 0
-13 -7 457 0
-13 7 -457 0
-13 -8 458 0
-13 8 -458 0
-13 -9 459 0
-13 9 -459 0
-13 -10 460 0
-13 10 -460 0
-13 -11 461 0
-13 11 -461 0
-13 -12 462 0
-13 12 -462 0
-14 -7 463 0
-14 7 -463 0
-14 -8 464 0
-14 8 -464 0
-14 -9 465 0
-14 9 -465 0
-14 -10 466 0
-14 10 -466 0
-14 -11 467 0
-14 11 -467 0
-14 -12 468 0
-14 12 -468 0
-15 -7 469 0
-15 7 -469 0
-15 -8 470 0
-15 8 -470 0
-15 -9 471 0
-15 9 -471 0
-15 -10 472 0
-15 10 -472 0
-15 -11 473 0
-15 11 -473 0
-15 -12 474 0
-15 12 -474 0
-16 -7 475 0
-16 7 -475 0
-16 -8 476 0
-16 8 -476 0
-16 -9 477 0
-16 9 -477 0
-16 -10 478 0
-16 10 -478 0
-16 -11 479 0
-16 11 -479 0
-16 -12 480 0
-16 12 -480 0
-17 -7 481 0
-17 7 -481 0
-17 -8 482 0
-17 8 -482 0
-17 -9 483 0
-17 9 -483 0
-17 -10 484 0
-17 10 -484 0
-17 -11 485 0
-17 11 -485 0
-17 -12 486 0
-17 12 -486 0
-18 -7 487 0
-18 7 -487 0
-18 -8 488 0
-18 8 -488 0
-18 -9 489 0
-18 9 -489 0
-18 -10 490 0
-18 10 -490 0
-18 -11 491 0
-18 11 -491 0
-18 -12 492 0
-18 12 -492 0
-13 -13 97 0
-13 13 -97 0
-13 -14 98 0
-13 14 -98 0
-13 -15 99 0
-13 15 -99 0
-13 -16 100 0
-13 16 -100 0
-13 -17 101 0
-13 17 -101 0
-13 -18 102 0
-13 18 -102 0
-14 -13 103 0
-14 13 -103 0
-14 -14 104 0
-14 14 -104 0
-14 -15 105 0
-14 15 -105 0
-14 -16 106 0
-14 16 -106 0
-14 -17 107 0
-14 17 -107 0
-14 -18 108 0
-14 18 -108 0
-15 -13 109 0
-15 13 -109 0
-15 -14 110 0
-15 14 -110 0
-15 -15 111 0
-15 15 -111 0
-15 -16 112 0
-15 16 -112 0
-15 -17 113 0
-15 17 -113 0
-15 -18 114 0
-15 18 -114 0
-16 -13 115 0
-16 13 -115 0
-16 -14 116 0
-16 14 -116 0
-16 -15 117 0
-16 15 -117 0
-16 -16 118 0
-16 16 -118 0
-16 -17 119 0
-16 17 -119 0
-16 -18 120 0
-16 18 -120 0
-17 -13 121 0
-17 13 -121 0
-17 -14 122 0
-17 14 -122 0
-17 -15 123 0
-17 15 -123 0
-17 -16 124 0
-17 16 -124 0
-17 -17 125 0
-17 17 -125 0
-17 -18 126 0
-17 18 -126 0
-18 -13 127 0
-18 13 -127 0
-18 -14 128 0
-18 14 -128 0
-18 -15 129 0
-18 15 -129 0
-18 -16 130 0
-18 16 -130 0
-18 -17 131 0
-18 17 -131 0
-18 -18 132 0
-18 18 -132 0
-19 -37 385 0
-19 37 -385 0
-19 -38 386 0
-19 38 -386 0
-19 -39 387 0
-19 39 -387 0
-19 -40 388 0
-19 40 -388 0
-19 -41 389 0
-19 41 -389 0
-19 -42 390 0
-19 42 -390 0
-20 -37 391 0
-20 37 -391 0
-20 -38 392 0
-20 38 -392 0
-20 -39 393 0
-20 39 -393 0
-20 -40 394 0
-20 40 -394 0
-20 -41 395 0
-20 41 -395 0
-20 -42 396 0
-20 42 -396 0
-21 -37 397 0
-21 37 -397 0
-21 -38 398 0
-21 38 -398 0
-21 -39 399 0
-21 39 -399 0
-21 -40 400 0
-21 40 -400 0
-21 -41 401 0
-21 41 -401 0
-21 -42 402 0
-21 42 -402 0
-22 -37 403 0
-22 37 -403 0
-22 -38 404 0
-22 38 -404 0
-22 -39 405 0
-22 39 -405 0
-22 -40 406 0
-22 40 -406 0
-22 -41 407 0
-22 41 -407 0
-22 -42 408 0
-22 42 -408 0
-23 -37 409 0
-23 37 -409 0
-23 -38 410 0
-23 38 -410 0
-23 -39 411 0
-23 39 -411 0
-23 -40 412 0
-23 40 -412 0
-23 -41 413 0
-23 41 -413 0
-23 -42 414 0
-23 42 -414 0
-24 -37 415 0
-24 37 -415 0
-24 -38 416 0
-24 38 -416 0
-24 -39 417 0
-24 39 -417 0
-24 -40 418 0
-24 40 -418 0
-24 -41 419 0
-24 41 -419 0
-24 -42 420 0
-24 42 -420 0
-19 -7 241 0
-19 7 -241 0
-19 -8 242 0
-19 8 -242 0
-19 -9 243 0
-19 9 -243 0
-19 -10 244 0
-19 10 -244 0
-19 -11 245 0
-19 11 -245 0
-19 -12 246 0
-19 12 -246 0
-20 -7 247 0
-20 7 -247 0
-20 -8 248 0
-20 8 -248 0
-20 -9 249 0
-20 9 -249 0
-20 -10 250 0
-20 10 -250 0
-20 -11 251 0
-20 11 -251 0
-20 -12 252 0
-20 12 -252 0
-21 -7 253 0
-21 7 -253 0
-21 -8 254 0
-21 8 -254 0
-21 -9 255 0
-21 9 -255 0
-21 -10 256 0
-21 10 -256 0
-21 -11 257 0
-21 11 -257 0
-21 -12 258 0
-21 12 -258 0
-22 -7 259 0
-22 7 -259 0
-22 -8 260 0
-22 8 -260 0
-22 -9 261 0
-22 9 -261 0
-22 -10 262 0
-22 10 -262 0
-22 -11 263 0
-22 11 -263 0
-22 -12 264 0
-22 12 -264 0
-23 -7 265 0
-23 7 -265 0
-23 -8 266 0
-23 8 -266 0
-23 -9 267 0
-23 9 -267 0
-23 -10 268 0
-23 10 -268 0
-23 -11 269 0
-23 11 -269 0
-23 -12 270 0
-23 12 -270 0
-24 -7 271 0
-24 7 -271 0
-24 -8 272 0
-24 8 -272 0
-24 -9 273 0
-24 9 -273 0
-24 -10 274 0
-24 10 -274 0
-24 -11 275 0
-24 11 -275 0
-24 -12 276 0
-24 12 -276 0
-19 -7 457 0
-19 7 -457 0
-19 -8 458 0
-19 8 -458 0
-19 -9 459 0
-19 9 -459 0
-19 -10 460 0
-19 10 -460 0
-19 -11 461 0
-19 11 -461 0
-19 -12 462 0
-19 12 -462 0
-20 -7 463 0
-20 7 -463 0
-20 -8 464 0
-20 8 -464 0
-20 -9 465 0
-20 9 -465 0
-20 -10 466 0
-20 10 -466 0
-20 -11 467 0
-20 11 -467 0
-20 -12 468 0
-20 12 -468 0
-21 -7 469 0
-21 7 -469 0
-21 -8 470 0
-21 8 -470 0
-21 -9 471 0
-21 9 -471 0
-21 -10 472 0
-21 10 -472 0
-21 -11 473 0
-21 11 -473 0
-21 -12 474 0
-21 12 -474 0
-22 -7 475 0
-22 7 -475 0
-22 -8 476 0
-22 8 -476 0
-22 -9 477 0
-22 9 -477 0
-22 -10 478 0
-22 10 -478 0
-22 -11 479 0
-22 11 -479 0
-22 -12 480 0
-22 12 -480 0
-23 -7 481 0
-23 7 -481 0
-23 -8 482 0
-23 8 -482 0
-23 -9 483 0
-23 9 -483 0
-23 -10 484 0
-23 10 -484 0
-23 -11 485 0
-23 11 -485 0
-23 -12 486 0
-23 12 -486 0
-24 -7 487 0
-24 7 -487 0
-24 -8 488 0
-24 8 -488 0
-24 -9 489 0
-24 9 -489 0
-24 -10 490 0
-24 10 -490 0
-24 -11 491 0
-24 11 -491 0
-24 -12 492 0
-24 12 -492 0
-19 -7 349 0
-19 7 -349 0
-19 -8 350 0
-19 8 -350 0
-19 -9 351 0
-19 9 -351 0
-19 -10 352 0
-19 10 -352 0
-19 -11 353 0
-19 11 -353 0
-19 -12 354 0
-19 12 -354 0
-20 -7 355 0
-20 7 -355 0
-20 -8 356 0
-20 8 -356 0
-20 -9 357 0
-20 9 -357 0
-20 -10 358 0
-20 10 -358 0
-20 -11 359 0
-20 11 -359 0
-20 -12 360 0
-20 12 -360 0
-21 -7 361 0
-21 7 -361 0
-21 -8 362 0
-21 8 -362 0
-21 -9 363 0
-21 9 -363 0
-21 -10 364 0
-21 10 -364 0
-21 -11 365 0
-21 11 -365 0
-21 -12 366 0
-21 12 -366 0
-22 -7 367 0
-22 7 -367 0
-22 -8 368 0
-22 8 -368 0
-22 -9 369 0
-22 9 -369 0
-22 -10 370 0
-22 10 -370 0
-22 -11 371 0
-22 11 -371 0
-22 -12 372 0
-22 12 -372 0
-23 -7 373 0
-23 7 -373 0
-23 -8 374 0
-23 8 -374 0
-23 -9 375 0
-23 9 -375 0
-23 -10 376 0
-23 10 -376 0
-23 -11 377 0
-23 11 -377 0
-23 -12 378 0
-23 12 -378 0
-24 -7 379 0
-24 7 -379 0
-24 -8 380 0
-24 8 -380 0
-24 -9 381 0
-24 9 -381 0
-24 -10 382 0
-24 10 -382 0
-24 -11 383 0
-24 11 -383 0
-24 -12 384 0
-24 12 -384 0
-19 -1 277 0
-19 1 -277 0
-19 -2 278 0
-19 2 -278 0
-19 -3 279 0
-19 3 -279 0
-19 -4 280 0
-19 4 -280 0
-19 -5 281 0
-19 5 -281 0
-19 -6 282 0
-19 6 -282 0
-20 -1 283 0
-20 1 -283 0
-20 -2 284 0
-20 2 -284 0
-20 -3 285 0
-20 3 -285 0
-20 -4 286 0
-20 4 -286 0
-20 -5 287 0
-20 5 -287 0
-20 -6 288 0
-20 6 -288 0
-21 -1 289 0
-21 1 -289 0
-21 -2 290 0
-21 2 -290 0
-21 -3 291 0
-21 3 -291 0
-21 -4 292 0
-21 4 -292 0
-21 -5 293 0
-21 5 -293 0
-21 -6 294 0
-21 6 -294 0
-22 -1 295 0
-22 1 -295 0
-22 -2 296 0
-22 2 -296 0
-22 -3 297 0
-22 3 -297 0
-22 -4 298 0
-22 4 -298 0
-22 -5 299 0
-22 5 -299 0
-22 -6 300 0
-22 6 -300 0
-23 -1 301 0
-23 1 -301 0
-23 -2 302 0
-23 2 -302 0
-23 -3 303 0
-23 3 -303 0
-23 -4 304 0
-23 4 -304 0
-23 -5 305 0
-23 5 -305 0
-23 -6 306 0
-23 6 -306 0
-24 -1 307 0
-24 1 -307 0
-24 -2 308 0
-24 2 -308 0
-24 -3 309 0
-24 3 -309 0
-24 -4 310 0
-24 4 -310 0
-24 -5 311 0
-24 5 -311 0
-24 -6 312 0
-24 6 -312 0
-19 -1 169 0
-19 1 -169 0
-19 -2 170 0
-19 2 -170 0
-19 -3 171 0
-19 3 -171 0
-19 -4 172 0
-19 4 -172 0
-19 -5 173 0
-19 5 -173 0
-19 -6 174 0
-19 6 -174 0
-20 -1 175 0
-20 1 -175 0
-20 -2 176 0
-20 2 -176 0
-20 -3 177 0
-20 3 -177 0
-20 -4 178 0
-20 4 -178 0
-20 -5 179 0
-20 5 -179 0
-20 -6 180 0
-20 6 -180 0
-21 -1 181 0
-21 1 -181 0
-21 -2 182 0
-21 2 -182 0
-21 -3 183 0
-21 3 -183 0
-21 -4 184 0
-21 4 -184 0
-21 -5 185 0
-21 5 -185 0
-21 -6 186 0
-21 6 -186 0
-22 -1 187 0
-22 1 -187 0
-22 -2 188 0
-22 2 -188 0
-22 -3 189 0
-22 3 -189 0
-22 -4 190 0
-22 4 -190 0
-22 -5 191 0
-22 5 -191 0
-22 -6 192 0
-22 6 -192 0
-23 -1 193 0
-23 1 -193 0
-23 -2 194 0
-23 2 -194 0
-23 -3 195 0
-23 3 -195 0
-23 -4 196 0
-23 4 -196 0
-23 -5 197 0
-23 5 -197 0
-23 -6 198 0
-23 6 -198 0
-24 -1 199 0
-24 1 -199 0
-24 -2 200 0
-24 2 -200 0
-24 -3 201 0
-24 3 -201 0
-24 -4 202 0
-24 4 -202 0
-24 -5 203 0
-24 5 -203 0
-24 -6 204 0
-24 6 -204 0
-19 -13 97 0
-19 13 -97 0
-19 -14 98 0
-19 14 -98 0
-19 -15 99 0
-19 15 -99 0
-19 -16 100 0
-19 16 -100 0
-19 -17 101 0
-19 17 -101 0
-19 -18 102 0
-19 18 -102 0
-20 -13 103 0
-20 13 -103 0
-20 -14 104 0
-20 14 -104 0
-20 -15 105 0
-20 15 -105 0
-20 -16 106 0
-20 16 -106 0
-20 -17 107 0
-20 17 -107 0
-20 -18 108 0
-20 18 -108 0
-21 -13 109 0
-21 13 -109 0
-21 -14 110 0
-21 14 -110 0
-21 -15 111 0
-21 15 -111 0
-21 -16 112 0
-21 16 -112 0
-21 -17 113 0
-21 17 -113 0
-21 -18 114 0
-21 18 -114 0
-22 -13 115 0
-22 13 -115 0
-22 -14 116 0
-22 14 -116 0
-22 -15 117 0
-22 15 -117 0
-22 -16 118 0
-22 16 -118 0
-22 -17 119 0
-22 17 -119 0
-22 -18 120 0
-22 18 -120 0
-23 -13 121 0
-23 13 -121 0
-23 -14 122 0
-23 14 -122 0
-23 -15 123 0
-23 15 -123 0
-23 -16 124 0
-23 16 -124 0
-23 -17 125 0
-23 17 -125 0
-23 -18 126 0
-23 18 -126 0
-24 -13 127 0
-24 13 -127 0
-24 -14 128 0
-24 14 -128 0
-24 -15 129 0
-24 15 -129 0
-24 -16 130 0
-24 16 -130 0
-24 -17 131 0
-24 17 -131 0
-24 -18 132 0
-24 18 -132 0
-25 -7 349 0
-25 7 -349 0
-25 -8 350 0
-25 8 -350 0
-25 -9 351 0
-25 9 -351 0
-25 -10 352 0
-25 10 -352 0
-25 -11 353 0
-25 11 -353 0
-25 -12 354 0
-25 12 -354 0
-26 -7 355 0
-26 7 -355 0
-26 -8 356 0
-26 8 -356 0
-26 -9 357 0
-26 9 -357 0
-26 -10 358 0
-26 10 -358 0
-26 -11 359 0
-26 11 -359 0
-26 -12 360 0
-26 12 -360 0
-27 -7 361 0
-27 7 -361 0
-27 -8 362 0
-27 8 -362 0
-27 -9 363 0
-27 9 -363 0
-27 -10 364 0
-27 10 -364 0
-27 -11 365 0
-27 11 -365 0
-27 -12 366 0
-27 12 -366 0
-28 -7 367 0
-28 7 -367 0
-28 -8 368 0
-28 8 -368 0
-28 -9 369 0
-28 9 -369 0
-28 -10 370 0
-28 10 -370 0
-28 -11 371 0
-28 11 -371 0
-28 -12 372 0
-28 12 -372 0
-29 -7 373 0
-29 7 -373 0
-29 -8 374 0
-29 8 -374 0
-29 -9 375 0
-29 9 -375 0
-29 -10 376 0
-29 10 -376 0
-29 -11 377 0
-29 11 -377 0
-29 -12 378 0
-29 12 -378 0
-30 -7 379 0
-30 7 -379 0
-30 -8 380 0
-30 8 -380 0
-30 -9 381 0
-30 9 -381 0
-30 -10 382 0
-30 10 -382 0
-30 -11 383 0
-30 11 -383 0
-30 -12 384 0
-30 12 -384 0
-25 -7 385 0
-25 7 -385 0
-25 -8 386 0
-25 8 -386 0
-25 -9 387 0
-25 9 -387 0
-25 -10 388 0
-25 10 -388 0
-25 -11 389 0
-25 11 -389 0
-25 -12 390 0
-25 12 -390 0
-26 -7 391 0
-26 7 -391 0
-26 -8 392 0
-26 8 -392 0
-26 -9 393 0
-26 9 -393 0
-26 -10 394 0
-26 10 -394 0
-26 -11 395 0
-26 11 -395 0
-26 -12 396 0
-26 12 -396 0
-27 -7 397 0
-27 7 -397 0
-27 -8 398 0
-27 8 -398 0
-27 -9 399 0
-27 9 -399 0
-27 -10 400 0
-27 10 -400 0
-27 -11 401 0
-27 11 -401 0
-27 -12 402 0
-27 12 -402 0
-28 -7 403 0
-28 7 -403 0
-28 -8 404 0
-28 8 -404 0
-28 -9 405 0
-28 9 -405 0
-28 -10 406 0
-28 10 -406 0
-28 -11 407 0
-28 11 -407 0
-28 -12 408 0
-28 12 -408 0
-29 -7 409 0
-29 7 -409 0
-29 -8 410 0
-29 8 -410 0
-29 -9 411 0
-29 9 -411 0
-29 -10 412 0
-29 10 -412 0
-29 -11 413 0
-29 11 -413 0
-29 -12 414 0
-29 12 -414 0
-30 -7 415 0
-30 7 -415 0
-30 -8 416 0
-30 8 -416 0
-30 -9 417 0
-30 9 -417 0
-30 -10 418 0
-30 10 -418 0
-30 -11 419 0
-30 11 -419 0
-30 -12 420 0
-30 12 -420 0
-25 -7 457 0
-25 7 -457 0
-25 -8 458 0
-25 8 -458 0
-25 -9 459 0
-25 9 -459 0
-25 -10 460 0
-25 10 -460 0
-25 -11 461 0
-25 11 -461 0
-25 -12 462 0
-25 12 -462 0
-26 -7 463 0
-26 7 -463 0
-26 -8 464 0
-26 8 -464 0
-26 -9 465 0
-26 9 -465 0
-26 -10 466 0
-26 10 -466 0
-26 -11 467 0
-26 11 -467 0
-26 -12 468 0
-26 12 -468 0
-27 -7 469 0
-27 7 -469 0
-27 -8 470 0
-27 8 -470 0
-27 -9 471 0
-27 9 -471 0
-27 -10 472 0
-27 10 -472 0
-27 -11 473 0
-27 11 -473 0
-27 -12 474 0
-27 12 -474 0
-28 -7 475 0
-28 7 -475 0
-28 -8 476 0
-28 8 -476 0
-28 -9 477 0
-28 9 -477 0
-28 -10 478 0
-28 10 -478 0
-28 -11 479 0
-28 11 -479 0
-28 -12 480 0
-28 12 -480 0
-29 -7 481 0
-29 7 -481 0
-29 -8 482 0
-29 8 -482 0
-29 -9 483 0
-29 9 -483 0
-29 -10 484 0
-29 10 -484 0
-29 -11 485 0
-29 11 -485 0
-29 -12 486 0
-29 12 -486 0
-30 -7 487 0
-30 7 -487 0
-30 -8 488 0
-30 8 -488 0
-30 -9 489 0
-30 9 -489 0
-30 -10 490 0
-30 10 -490 0
-30 -11 491 0
-30 11 -491 0
-30 -12 492 0
-30 12 -492 0
-25 -7 133 0
-25 7 -133 0
-25 -8 134 0
-25 8 -134 0
-25 -9 135 0
-25 9 -135 0
-25 -10 136 0
-25 10 -136 0
-25 -11 137 0
-25 11 -137 0
-25 -12 138 0
-25 12 -138 0
-26 -7 139 0
-26 7 -139 0
-26 -8 140 0
-26 8 -140 0
-26 -9 141 0
-26 9 -141 0
-26 -10 142 0
-26 10 -142 0
-26 -11 143 0
-26 11 -143 0
-26 -12 144 0
-26 12 -144 0
-27 -7 145 0
-27 7 -145 0
-27 -8 146 0
-27 8 -146 0
-27 -9 147 0
-27 9 -147 0
-27 -10 148 0
-27 10 -148 0
-27 -11 149 0
-27 11 -149 0
-27 -12 150 0
-27 12 -150 0
-28 -7 151 0
-28 7 -151 0
-28 -8 152 0
-28 8 -152 0
-28 -9 153 0
-28 9 -153 0
-28 -10 154 0
-28 10 -154 0
-28 -11 155 0
-28 11 -155 0
-28 -12 156 0
-28 12 -156 0
-29 -7 157 0
-29 7 -157 0
-29 -8 158 0
-29 8 -158 0
-29 -9 159 0
-29 9 -159 0
-29 -10 160 0
-29 10 -160 0
-29 -11 161 0
-29 11 -161 0
-29 -12 162 0
-29 12 -162 0
-30 -7 163 0
-30 7 -163 0
-30 -8 164 0
-30 8 -164 0
-30 -9 165 0
-30 9 -165 0
-30 -10 166 0
-30 10 -166 0
-30 -11 167 0
-30 11 -167 0
-30 -12 168 0
-30 12 -168 0
-25 -25 421 0
-25 25 -421 0
-25 -26 422 0
-25 26 -422 0
-25 -27 423 0
-25 27 -423 0
-25 -28 424 0
-25 28 -424 0
-25 -29 425 0
-25 29 -425 0
-25 -30 426 0
-25 30 -426 0
-26 -25 427 0
-26 25 -427 0
-26 -26 428 0
-26 26 -428 0
-26 -27 429 0
-26 27 -429 0
-26 -28 430 0
-26 28 -430 0
-26 -29 431 0
-26 29 -431 0
-26 -30 432 0
-26 30 -432 0
-27 -25 433 0
-27 25 -433 0
-27 -26 434 0
-27 26 -434 0
-27 -27 435 0
-27 27 -435 0
-27 -28 436 0
-27 28 -436 0
-27 -29 437 0
-27 29 -437 0
-27 -30 438 0
-27 30 -438 0
-28 -25 439 0
-28 25 -439 0
-28 -26 440 0
-28 26 -440 0
-28 -27 441 0
-28 27 -441 0
-28 -28 442 0
-28 28 -442 0
-28 -29 443 0
-28 29 -443 0
-28 -30 444 0
-28 30 -444 0
-29 -25 445 0
-29 25 -445 0
-29 -26 446 0
-29 26 -446 0
-29 -27 447 0
-29 27 -447 0
-29 -28 448 0
-29 28 -448 0
-29 -29 449 0
-29 29 -449 0
-29 -30 450 0
-29 30 -450 0
-30 -25 451 0
-30 25 -451 0
-30 -26 452 0
-30 26 -452 0
-30 -27 453 0
-30 27 -453 0
-30 -28 454 0
-30 28 -454 0
-30 -29 455 0
-30 29 -455 0
-30 -30 456 0
-30 30 -456 0
-31 -7 169 0
-31 7 -169 0
-31 -8 170 0
-31 8 -170 0
-31 -9 171 0
-31 9 -171 0
-31 -10 172 0
-31 10 -172 0
-31 -11 173 0
-31 11 -173 0
-31 -12 174 0
-31 12 -174 0
-32 -7 175 0
-32 7 -175 0
-32 -8 176 0
-32 8 -176 0
-32 -9 177 0
-32 9 -177 0
-32 -10 178 0
-32 10 -178 0
-32 -11 179 0
-32 11 -179 0
-32 -12 180 0
-32 12 -180 0
-33 -7 181 0
-33 7 -181 0
-33 -8 182 0
-33 8 -182 0
-33 -9 183 0
-33 9 -183 0
-33 -10 184 0
-33 10 -184 0
-33 -11 185 0
-33 11 -185 0
-33 -12 186 0
-33 12 -186 0
-34 -7 187 0
-34 7 -187 0
-34 -8 188 0
-34 8 -188 0
-34 -9 189 0
-34 9 -189 0
-34 -10 190 0
-34 10 -190 0
-34 -11 191 0
-34 11 -191 0
-34 -12 192 0
-34 12 -192 0
-35 -7 193 0
-35 7 -193 0
-35 -8 194 0
-35 8 -194 0
-35 -9 195 0
-35 9 -195 0
-35 -10 196 0
-35 10 -196 0
-35 -11 197 0
-35 11 -197 0
-35 -12 198 0
-35 12 -198 0
-36 -7 199 0
-36 7 -199 0
-36 -8 200 0
-36 8 -200 0
-36 -9 201 0
-36 9 -201 0
-36 -10 202 0
-36 10 -202 0
-36 -11 203 0
-36 11 -203 0
-36 -12 204 0
-36 12 -204 0
-31 -7 385 0
-31 7 -385 0
-31 -8 386 0
-31 8 -386 0
-31 -9 387 0
-31 9 -387 0
-31 -10 388 0
-31 10 -388 0
-31 -11 389 0
-31 11 -389 0
-31 -12 390 0
-31 12 -390 0
-32 -7 391 0
-32 7 -391 0
-32 -8 392 0
-32 8 -392 0
-32 -9 393 0
-32 9 -393 0
-32 -10 394 0
-32 10 -394 0
-32 -11 395 0
-32 11 -395 0
-32 -12 396 0
-32 12 -396 0
-33 -7 397 0
-33 7 -397 0
-33 -8 398 0
-33 8 -398 0
-33 -9 399 0
-33 9 -399 0
-33 -10 400 0
-33 10 -400 0
-33 -11 401 0
-33 11 -401 0
-33 -12 402 0
-33 12 -402 0
-34 -7 403 0
-34 7 -403 0
-34 -8 404 0
-34 8 -404 0
-34 -9 405 0
-34 9 -405 0
-34 -10 406 0
-34 10 -406 0
-34 -11 407 0
-34 11 -407 0
-34 -12 408 0
-34 12 -408 0
-35 -7 409 0
-35 7 -409 0
-35 -8 410 0
-35 8 -410 0
-35 -9 411 0
-35 9 -411 0
-35 -10 412 0
-35 10 -412 0
-35 -11 413 0
-35 11 -413 0
-35 -12 414 0
-35 12 -414 0
-36 -7 415 0
-36 7 -415 0
-36 -8 416 0
-36 8 -416 0
-36 -9 417 0
-36 9 -417 0
-36 -10 418 0
-36 10 -418 0
-36 -11 419 0
-36 11 -419 0
-36 -12 420 0
-36 12 -420 0
-31 -7 277 0
-31 7 -277 0
-31 -8 278 0
-31 8 -278 0
-31 -9 279 0
-31 9 -279 0
-31 -10 280 0
-31 10 -280 0
-31 -11 281 0
-31 11 -281 0
-31 -12 282 0
-31 12 -282 0
-32 -7 283 0
-32 7 -283 0
-32 -8 284 0
-32 8 -284 0
-32 -9 285 0
-32 9 -285 0
-32 -10 286 0
-32 10 -286 0
-32 -11 287 0
-32 11 -287 0
-32 -12 288 0
-32 12 -288 0
-33 -7 289 0
-33 7 -289 0
-33 -8 290 0
-33 8 -290 0
-33 -9 291 0
-33 9 -291 0
-33 -10 292 0
-33 10 -292 0
-33 -11 293 0
-33 11 -293 0
-33 -12 294 0
-33 12 -294 0
-34 -7 295 0
-34 7 -295 0
-34 -8 296 0
-34 8 -296 0
-34 -9 297 0
-34 9 -297 0
-34 -10 298 0
-34 10 -298 0
-34 -11 299 0
-34 11 -299 0
-34 -12 300 0
-34 12 -300 0
-35 -7 301 0
-35 7 -301 0
-35 -8 302 0
-35 8 -302 0
-35 -9 303 0
-35 9 -303 0
-35 -10 304 0
-35 10 -304 0
-35 -11 305 0
-35 11 -305 0
-35 -12 306 0
-35 12 -306 0
-36 -7 307 0
-36 7 -307 0
-36 -8 308 0
-36 8 -308 0
-36 -9 309 0
-36 9 -309 0
-36 -10 310 0
-36 10 -310 0
-36 -11 311 0
-36 11 -311 0
-36 -12 312 0
-36 12 -312 0
-31 -25 313 0
-31 25 -313 0
-31 -26 314 0
-31 26 -314 0
-31 -27 315 0
-31 27 -315 0
-31 -28 316 0
-31 28 -316 0
-31 -29 317 0
-31 29 -317 0
-31 -30 318 0
-31 30 -318 0
-32 -25 319 0
-32 25 -319 0
-32 -26 320 0
-32 26 -320 0
-32 -27 321 0
-32 27 -321 0
-32 -28 322 0
-32 28 -322 0
-32 -29 323 0
-32 29 -323 0
-32 -30 324 0
-32 30 -324 0
-33 -25 325 0
-33 25 -325 0
-33 -26 326 0
-33 26 -326 0
-33 -27 327 0
-33 27 -327 0
-33 -28 328 0
-33 28 -328 0
-33 -29 329 0
-33 29 -329 0
-33 -30 330 0
-33 30 -330 0
-34 -25 331 0
-34 25 -331 0
-34 -26 332 0
-34 26 -332 0
-34 -27 333 0
-34 27 -333 0
-34 -28 334 0
-34 28 -334 0
-34 -29 335 0
-34 29 -335 0
-34 -30 336 0
-34 30 -336 0
-35 -25 337 0
-35 25 -337 0
-35 -26 338 0
-35 26 -338 0
-35 -27 339 0
-35 27 -339 0
-35 -28 340 0
-35 28 -340 0
-35 -29 341 0
-35 29 -341 0
-35 -30 342 0
-35 30 -342 0
-36 -25 343 0
-36 25 -343 0
-36 -26 344 0
-36 26 -344 0
-36 -27 345 0
-36 27 -345 0
-36 -28 346 0
-36 28 -346 0
-36 -29 347 0
-36 29 -347 0
-36 -30 348 0
-36 30 -348 0
-37 -43 277 0
-37 43 -277 0
-37 -44 278 0
-37 44 -278 0
-37 -45 279 0
-37 45 -279 0
-37 -46 280 0
-37 46 -280 0
-37 -47 281 0
-37 47 -281 0
-37 -48 282 0
-37 48 -282 0
-38 -43 283 0
-38 43 -283 0
-38 -44 284 0
-38 44 -284 0
-38 -45 285 0
-38 45 -285 0
-38 -46 286 0
-38 46 -286 0
-38 -47 287 0
-38 47 -287 0
-38 -48 288 0
-38 48 -288 0
-39 -43 289 0
-39 43 -289 0
-39 -44 290 0
-39 44 -290 0
-39 -45 291 0
-39 45 -291 0
-39 -46 292 0
-39 46 -292 0
-39 -47 293 0
-39 47 -293 0
-39 -48 294 0
-39 48 -294 0
-40 -43 295 0
-40 43 -295 0
-40 -44 296 0
-40 44 -296 0
-40 -45 297 0
-40 45 -297 0
-40 -46 298 0
-40 46 -298 0
-40 -47 299 0
-40 47 -299 0
-40 -48 300 0
-40 48 -300 0
-41 -43 301 0
-41 43 -301 0
-41 -44 302 0
-41 44 -302 0
-41 -45 303 0
-41 45 -303 0
-41 -46 304 0
-41 46 -304 0
-41 -47 305 0
-41 47 -305 0
-41 -48 306 0
-41 48 -306 0
-42 -43 307 0
-42 43 -307 0
-42 -44 308 0
-42 44 -308 0
-42 -45 309 0
-42 45 -309 0
-42 -46 310 0
-42 46 -310 0
-42 -47 311 0
-42 47 -311 0
-42 -48 312 0
-42 48 -312 0
-37 -7 421 0
-37 7 -421 0
-37 -8 422 0
-37 8 -422 0
-37 -9 423 0
-37 9 -423 0
-37 -10 424 0
-37 10 -424 0
-37 -11 425 0
-37 11 -425 0
-37 -12 426 0
-37 12 -426 0
-38 -7 427 0
-38 7 -427 0
-38 -8 428 0
-38 8 -428 0
-38 -9 429 0
-38 9 -429 0
-38 -10 430 0
-38 10 -430 0
-38 -11 431 0
-38 11 -431 0
-38 -12 432 0
-38 12 -432 0
-39 -7 433 0
-39 7 -433 0
-39 -8 434 0
-39 8 -434 0
-39 -9 435 0
-39 9 -435 0
-39 -10 436 0
-39 10 -436 0
-39 -11 437 0
-39 11 -437 0
-39 -12 438 0
-39 12 -438 0
-40 -7 439 0
-40 7 -439 0
-40 -8 440 0
-40 8 -440 0
-40 -9 441 0
-40 9 -441 0
-40 -10 442 0
-40 10 -442 0
-40 -11 443 0
-40 11 -443 0
-40 -12 444 0
-40 12 -444 0
-41 -7 445 0
-41 7 -445 0
-41 -8 446 0
-41 8 -446 0
-41 -9 447 0
-41 9 -447 0
-41 -10 448 0
-41 10 -448 0
-41 -11 449 0
-41 11 -449 0
-41 -12 450 0
-41 12 -450 0
-42 -7 451 0
-42 7 -451 0
-42 -8 452 0
-42 8 -452 0
-42 -9 453 0
-42 9 -453 0
-42 -10 454 0
-42 10 -454 0
-42 -11 455 0
-42 11 -455 0
-42 -12 456 0
-42 12 -456 0
-37 -7 457 0
-37 7 -457 0
-37 -8 458 0
-37 8 -458 0
-37 -9 459 0
-37 9 -459 0
-37 -10 460 0
-37 10 -460 0
-37 -11 461 0
-37 11 -461 0
-37 -12 462 0
-37 12 -462 0
-38 -7 463 0
-38 7 -463 0
-38 -8 464 0
-38 8 -464 0
-38 -9 465 0
-38 9 -465 0
-38 -10 466 0
-38 10 -466 0
-38 -11 467 0
-38 11 -467 0
-38 -12 468 0
-38 12 -468 0
-39 -7 469 0
-39 7 -469 0
-39 -8 470 0
-39 8 -470 0
-39 -9 471 0
-39 9 -471 0
-39 -10 472 0
-39 10 -472 0
-39 -11 473 0
-39 11 -473 0
-39 -12 474 0
-39 12 -474 0
-40 -7 475 0
-40 7 -475 0
-40 -8 476 0
-40 8 -476 0
-40 -9 477 0
-40 9 -477 0
-40 -10 478 0
-40 10 -478 0
-40 -11 479 0
-40 11 -479 0
-40 -12 480 0
-40 12 -480 0
-41 -7 481 0
-41 7 -481 0
-41 -8 482 0
-41 8 -482 0
-41 -9 483 0
-41 9 -483 0
-41 -10 484 0
-41 10 -484 0
-41 -11 485 0
-41 11 -485 0
-41 -12 486 0
-41 12 -486 0
-42 -7 487 0
-42 7 -487 0
-42 -8 488 0
-42 8 -488 0
-42 -9 489 0
-42 9 -489 0
-42 -10 490 0
-42 10 -490 0
-42 -11 491 0
-42 11 -491 0
-42 -12 492 0
-42 12 -492 0
-37 -13 97 0
-37 13 -97 0
-37 -14 98 0
-37 14 -98 0
-37 -15 99 0
-37 15 -99 0
-37 -16 100 0
-37 16 -100 0
-37 -17 101 0
-37 17 -101 0
-37 -18 102 0
-37 18 -102 0
-38 -13 103 0
-38 13 -103 0
-38 -14 104 0
-38 14 -104 0
-38 -15 105 0
-38 15 -105 0
-38 -16 106 0
-38 16 -106 0
-38 -17 107 0
-38 17 -107 0
-38 -18 108 0
-38 18 -108 0
-39 -13 109 0
-39 13 -109 0
-39 -14 110 0
-39 14 -110 0
-39 -15 111 0
-39 15 -111 0
-39 -16 112 0
-39 16 -112 0
-39 -17 113 0
-39 17 -113 0
-39 -18 114 0
-39 18 -114 0
-40 -13 115 0
-40 13 -115 0
-40 -14 116 0
-40 14 -116 0
-40 -15 117 0
-40 15 -117 0
-40 -16 118 0
-40 16 -118 0
-40 -17 119 0
-40 17 -119 0
-40 -18 120 0
-40 18 -120 0
-41 -13 121 0
-41 13 -121 0
-41 -14 122 0
-41 14 -122 0
-41 -15 123 0
-41 15 -123 0
-41 -16 124 0
-41 16 -124 0
-41 -17 125 0
-41 17 -125 0
-41 -18 126 0
-41 18 -126 0
-42 -13 127 0
-42 13 -127 0
-42 -14 128 0
-42 14 -128 0
-42 -15 129 0
-42 15 -129 0
-42 -16 130 0
-42 16 -130 0
-42 -17 131 0
-42 17 -131 0
-42 -18 132 0
-42 18 -132 0
-37 -1 169 0
-37 1 -169 0
-37 -2 170 0
-37 2 -170 0
-37 -3 171 0
-37 3 -171 0
-37 -4 172 0
-37 4 -172 0
-37 -5 173 0
-37 5 -173 0
-37 -6 174 0
-37 6 -174 0
-38 -1 175 0
-38 1 -175 0
-38 -2 176 0
-38 2 -176 0
-38 -3 177 0
-38 3 -177 0
-38 -4 178 0
-38 4 -178 0
-38 -5 179 0
-38 5 -179 0
-38 -6 180 0
-38 6 -180 0
-39 -1 181 0
-39 1 -181 0
-39 -2 182 0
-39 2 -182 0
-39 -3 183 0
-39 3 -183 0
-39 -4 184 0
-39 4 -184 0
-39 -5 185 0
-39 5 -185 0
-39 -6 186 0
-39 6 -186 0
-40 -1 187 0
-40 1 -187 0
-40 -2 188 0
-40 2 -188 0
-40 -3 189 0
-40 3 -189 0
-40 -4 190 0
-40 4 -190 0
-40 -5 191 0
-40 5 -191 0
-40 -6 192 0
-40 6 -192 0
-41 -1 193 0
-41 1 -193 0
-41 -2 194 0
-41 2 -194 0
-41 -3 195 0
-41 3 -195 0
-41 -4 196 0
-41 4 -196 0
-41 -5 197 0
-41 5 -197 0
-41 -6 198 0
-41 6 -198 0
-42 -1 199 0
-42 1 -199 0
-42 -2 200 0
-42 2 -200 0
-42 -3 201 0
-42 3 -201 0
-42 -4 202 0
-42 4 -202 0
-42 -5 203 0
-42 5 -203 0
-42 -6 204 0
-42 6 -204 0
-43 -7 97 0
-43 7 -97 0
-43 -8 98 0
-43 8 -98 0
-43 -9 99 0
-43 9 -99 0
-43 -10 100 0
-43 10 -100 0
-43 -11 101 0
-43 11 -101 0
-43 -12 102 0
-43 12 -102 0
-44 -7 103 0
-44 7 -103 0
-44 -8 104 0
-44 8 -104 0
-44 -9 105 0
-44 9 -105 0
-44 -10 106 0
-44 10 -106 0
-44 -11 107 0
-44 11 -107 0
-44 -12 108 0
-44 12 -108 0
-45 -7 109 0
-45 7 -109 0
-45 -8 110 0
-45 8 -110 0
-45 -9 111 0
-45 9 -111 0
-45 -10 112 0
-45 10 -112 0
-45 -11 113 0
-45 11 -113 0
-45 -12 114 0
-45 12 -114 0
-46 -7 115 0
-46 7 -115 0
-46 -8 116 0
-46 8 -116 0
-46 -9 117 0
-46 9 -117 0
-46 -10 118 0
-46 10 -118 0
-46 -11 119 0
-46 11 -119 0
-46 -12 120 0
-46 12 -120 0
-47 -7 121 0
-47 7 -121 0
-47 -8 122 0
-47 8 -122 0
-47 -9 123 0
-47 9 -123 0
-47 -10 124 0
-47 10 -124 0
-47 -11 125 0
-47 11 -125 0
-47 -12 126 0
-47 12 -126 0
-48 -7 127 0
-48 7 -127 0
-48 -8 128 0
-48 8 -128 0
-48 -9 129 0
-48 9 -129 0
-48 -10 130 0
-48 10 -130 0
-48 -11 131 0
-48 11 -131 0
-48 -12 132 0
-48 12 -132 0
-49 -7 277 0
-49 7 -277 0
-49 -8 278 0
-49 8 -278 0
-49 -9 279 0
-49 9 -279 0
-49 -10 280 0
-49 10 -280 0
-49 -11 281 0
-49 11 -281 0
-49 -12 282 0
-49 12 -282 0
-50 -7 283 0
-50 7 -283 0
-50 -8 284 0
-50 8 -284 0
-50 -9 285 0
-50 9 -285 0
-50 -10 286 0
-50 10 -286 0
-50 -11 287 0
-50 11 -287 0
-50 -12 288 0
-50 12 -288 0
-51 -7 289 0
-51 7 -289 0
-51 -8 290 0
-51 8 -290 0
-51 -9 291 0
-51 9 -291 0
-51 -10 292 0
-51 10 -292 0
-51 -11 293 0
-51 11 -293 0
-51 -12 294 0
-51 12 -294 0
-52 -7 295 0
-52 7 -295 0
-52 -8 296 0
-52 8 -296 0
-52 -9 297 0
-52 9 -297 0
-52 -10 298 0
-52 10 -298 0
-52 -11 299 0
-52 11 -299 0
-52 -12 300 0
-52 12 -300 0
-53 -7 301 0
-53 7 -301 0
-53 -8 302 0
-53 8 -302 0
-53 -9 303 0
-53 9 -303 0
-53 -10 304 0
-53 10 -304 0
-53 -11 305 0
-53 11 -305 0
-53 -12 306 0
-53 12 -306 0
-54 -7 307 0
-54 7 -307 0
-54 -8 308 0
-54 8 -308 0
-54 -9 309 0
-54 9 -309 0
-54 -10 310 0
-54 10 -310 0
-54 -11 311 0
-54 11 -311 0
-54 -12 312 0
-54 12 -312 0
-49 -7 457 0
-49 7 -457 0
-49 -8 458 0
-49 8 -458 0
-49 -9 459 0
-49 9 -459 0
-49 -10 460 0
-49 10 -460 0
-49 -11 461 0
-49 11 -461 0
-49 -12 462 0
-49 12 -462 0
-50 -7 463 0
-50 7 -463 0
-50 -8 464 0
-50 8 -464 0
-50 -9 465 0
-50 9 -465 0
-50 -10 466 0
-50 10 -466 0
-50 -11 467 0
-50 11 -467 0
-50 -12 468 0
-50 12 -468 0
-51 -7 469 0
-51 7 -469 0
-51 -8 470 0
-51 8 -470 0
-51 -9 471 0
-51 9 -471 0
-51 -10 472 0
-51 10 -472 0
-51 -11 473 0
-51 11 -473 0
-51 -12 474 0
-51 12 -474 0
-52 -7 475 0
-52 7 -475 0
-52 -8 476 0
-52 8 -476 0
-52 -9 477 0
-52 9 -477 0
-52 -10 478 0
-52 10 -478 0
-52 -11 479 0
-52 11 -479 0
-52 -12 480 0
-52 12 -480 0
-53 -7 481 0
-53 7 -481 0
-53 -8 482 0
-53 8 -482 0
-53 -9 483 0
-53 9 -483 0
-53 -10 484 0
-53 10 -484 0
-53 -11 485 0
-53 11 -485 0
-53 -12 486 0
-53 12 -486 0
-54 -7 487 0
-54 7 -487 0
-54 -8 488 0
-54 8 -488 0
-54 -9 489 0
-54 9 -489 0
-54 -10 490 0
-54 10 -490 0
-54 -11 491 0
-54 11 -491 0
-54 -12 492 0
-54 12 -492 0
-49 -7 385 0
-49 7 -385 0
-49 -8 386 0
-49 8 -386 0
-49 -9 387 0
-49 9 -387 0
-49 -10 388 0
-49 10 -388 0
-49 -11 389 0
-49 11 -389 0
-49 -12 390 0
-49 12 -390 0
-50 -7 391 0
-50 7 -391 0
-50 -8 392 0
-50 8 -392 0
-50 -9 393 0
-50 9 -393 0
-50 -10 394 0
-50 10 -394 0
-50 -11 395 0
-50 11 -395 0
-50 -12 396 0
-50 12 -396 0
-51 -7 397 0
-51 7 -397 0
-51 -8 398 0
-51 8 -398 0
-51 -9 399 0
-51 9 -399 0
-51 -10 400 0
-51 10 -400 0
-51 -11 401 0
-51 11 -401 0
-51 -12 402 0
-51 12 -402 0
-52 -7 403 0
-52 7 -403 0
-52 -8 404 0
-52 8 -404 0
-52 -9 405 0
-52 9 -405 0
-52 -10 406 0
-52 10 -406 0
-52 -11 407 0
-52 11 -407 0
-52 -12 408 0
-52 12 -408 0
-53 -7 409 0
-53 7 -409 0
-53 -8 410 0
-53 8 -410 0
-53 -9 411 0
-53 9 -411 0
-53 -10 412 0
-53 10 -412 0
-53 -11 413 0
-53 11 -413 0
-53 -12 414 0
-53 12 -414 0
-54 -7 415 0
-54 7 -415 0
-54 -8 416 0
-54 8 -416 0
-54 -9 417 0
-54 9 -417 0
-54 -10 418 0
-54 10 -418 0
-54 -11 419 0
-54 11 -419 0
-54 -12 420 0
-54 12 -420 0
-49 -31 421 0
-49 31 -421 0
-49 -32 422 0
-49 32 -422 0
-49 -33 423 0
-49 33 -423 0
-49 -34 424 0
-49 34 -424 0
-49 -35 425 0
-49 35 -425 0
-49 -36 426 0
-49 36 -426 0
-50 -31 427 0
-50 31 -427 0
-50 -32 428 0
-50 32 -428 0
-50 -33 429 0
-50 33 -429 0
-50 -34 430 0
-50 34 -430 0
-50 -35 431 0
-50 35 -431 0
-50 -36 432 0
-50 36 -432 0
-51 -31 433 0
-51 31 -433 0
-51 -32 434 0
-51 32 -434 0
-51 -33 435 0
-51 33 -435 0
-51 -34 436 0
-51 34 -436 0
-51 -35 437 0
-51 35 -437 0
-51 -36 438 0
-51 36 -438 0
-52 -31 439 0
-52 31 -439 0
-52 -32 440 0
-52 32 -440 0
-52 -33 441 0
-52 33 -441 0
-52 -34 442 0
-52 34 -442 0
-52 -35 443 0
-52 35 -443 0
-52 -36 444 0
-52 36 -444 0
-53 -31 445 0
-53 31 -445 0
-53 -32 446 0
-53 32 -446 0
-53 -33 447 0
-53 33 -447 0
-53 -34 448 0
-53 34 -448 0
-53 -35 449 0
-53 35 -449 0
-53 -36 450 0
-53 36 -450 0
-54 -31 451 0
-54 31 -451 0
-54 -32 452 0
-54 32 -452 0
-54 -33 453 0
-54 33 -453 0
-54 -34 454 0
-54 34 -454 0
-54 -35 455 0
-54 35 -455 0
-54 -36 456 0
-54 36 -456 0
-49 -13 97 0
-49 13 -97 0
-49 -14 98 0
-49 14 -98 0
-49 -15 99 0
-49 15 -99 0
-49 -16 100 0
-49 16 -100 0
-49 -17 101 0
-49 17 -101 0
-49 -18 102 0
-49 18 -102 0
-50 -13 103 0
-50 13 -103 0
-50 -14 104 0
-50 14 -104 0
-50 -15 105 0
-50 15 -105 0
-50 -16 106 0
-50 16 -106 0
-50 -17 107 0
-50 17 -107 0
-50 -18 108 0
-50 18 -108 0
-51 -13 109 0
-51 13 -109 0
-51 -14 110 0
-51 14 -110 0
-51 -15 111 0
-51 15 -111 0
-51 -16 112 0
-51 16 -112 0
-51 -17 113 0
-51 17 -113 0
-51 -18 114 0
-51 18 -114 0
-52 -13 115 0
-52 13 -115 0
-52 -14 116 0
-52 14 -116 0
-52 -15 117 0
-52 15 -117 0
-52 -16 118 0
-52 16 -118 0
-52 -17 119 0
-52 17 -119 0
-52 -18 120 0
-52 18 -120 0
-53 -13 121 0
-53 13 -121 0
-53 -14 122 0
-53 14 -122 0
-53 -15 123 0
-53 15 -123 0
-53 -16 124 0
-53 16 -124 0
-53 -17 125 0
-53 17 -125 0
-53 -18 126 0
-53 18 -126 0
-54 -13 127 0
-54 13 -127 0
-54 -14 128 0
-54 14 -128 0
-54 -15 129 0
-54 15 -129 0
-54 -16 130 0
-54 16 -130 0
-54 -17 131 0
-54 17 -131 0
-54 -18 132 0
-54 18 -132 0
-49 -25 313 0
-49 25 -313 0
-49 -26 314 0
-49 26 -314 0
-49 -27 315 0
-49 27 -315 0
-49 -28 316 0
-49 28 -316 0
-49 -29 317 0
-49 29 -317 0
-49 -30 318 0
-49 30 -318 0
-50 -25 319 0
-50 25 -319 0
-50 -26 320 0
-50 26 -320 0
-50 -27 321 0
-50 27 -321 0
-50 -28 322 0
-50 28 -322 0
-50 -29 323 0
-50 29 -323 0
-50 -30 324 0
-50 30 -324 0
-51 -25 325 0
-51 25 -325 0
-51 -26 326 0
-51 26 -326 0
-51 -27 327 0
-51 27 -327 0
-51 -28 328 0
-51 28 -328 0
-51 -29 329 0
-51 29 -329 0
-51 -30 330 0
-51 30 -330 0
-52 -25 331 0
-52 25 -331 0
-52 -26 332 0
-52 26 -332 0
-52 -27 333 0
-52 27 -333 0
-52 -28 334 0
-52 28 -334 0
-52 -29 335 0
-52 29 -335 0
-52 -30 336 0
-52 30 -336 0
-53 -25 337 0
-53 25 -337 0
-53 -26 338 0
-53 26 -338 0
-53 -27 339 0
-53 27 -339 0
-53 -28 340 0
-53 28 -340 0
-53 -29 341 0
-53 29 -341 0
-53 -30 342 0
-53 30 -342 0
-54 -25 343 0
-54 25 -343 0
-54 -26 344 0
-54 26 -344 0
-54 -27 345 0
-54 27 -345 0
-54 -28 346 0
-54 28 -346 0
-54 -29 347 0
-54 29 -347 0
-54 -30 348 0
-54 30 -348 0
c traget_1_accepted_state_per_input
-61 -55 98 0
-61 -55 134 0
-61 -55 -62 0
-61 -55 -63 0
-61 -55 -64 0
-61 -55 -65 0
-61 -55 -66 0
-97 -55 62 0
-97 -55 134 0
-97 -55 -98 0
-97 -55 -99 0
-97 -55 -100 0
-97 -55 -101 0
-97 -55 -102 0
-133 -55 62 0
-133 -55 98 0
-133 -55 -134 0
-133 -55 -135 0
-133 -55 -136 0
-133 -55 -137 0
-133 -55 -138 0
-62 -56 98 0
-62 -56 134 0
-62 -56 -61 0
-62 -56 -63 0
-62 -56 -64 0
-62 -56 -65 0
-62 -56 -66 0
-98 -56 62 0
-98 -56 134 0
-98 -56 -97 0
-98 -56 -99 0
-98 -56 -100 0
-98 -56 -101 0
-98 -56 -102 0
-134 -56 62 0
-134 -56 98 0
-134 -56 -133 0
-134 -56 -135 0
-134 -56 -136 0
-134 -56 -137 0
-134 -56 -138 0
-63 -57 98 0
-63 -57 134 0
-63 -57 -61 0
-63 -57 -62 0
-63 -57 -64 0
-63 -57 -65 0
-63 -57 -66 0
-99 -57 62 0
-99 -57 134 0
-99 -57 -97 0
-99 -57 -98 0
-99 -57 -100 0
-99 -57 -101 0
-99 -57 -102 0
-135 -57 62 0
-135 -57 98 0
-135 -57 -133 0
-135 -57 -134 0
-135 -57 -136 0
-135 -57 -137 0
-135 -57 -138 0
-64 -58 98 0
-64 -58 134 0
-64 -58 -61 0
-64 -58 -62 0
-64 -58 -63 0
-64 -58 -65 0
-64 -58 -66 0
-100 -58 62 0
-100 -58 134 0
-100 -58 -97 0
-100 -58 -98 0
-100 -58 -99 0
-100 -58 -101 0
-100 -58 -102 0
-136 -58 62 0
-136 -58 98 0
-136 -58 -133 0
-136 -58 -134 0
-136 -58 -135 0
-136 -58 -137 0
-136 -58 -138 0
-65 -59 98 0
-65 -59 134 0
-65 -59 -61 0
-65 -59 -62 0
-65 -59 -63 0
-65 -59 -64 0
-65 -59 -66 0
-101 -59 62 0
-101 -59 134 0
-101 -59 -97 0
-101 -59 -98 0
-101 -59 -99 0
-101 -59 -100 0
-101 -59 -102 0
-137 -59 62 0
-137 -59 98 0
-137 -59 -133 0
-137 -59 -134 0
-137 -59 -135 0
-137 -59 -136 0
-137 -59 -138 0
-66 -60 98 0
-66 -60 134 0
-66 -60 -61 0
-66 -60 -62 0
-66 -60 -63 0
-66 -60 -64 0
-66 -60 -65 0
-102 -60 62 0
-102 -60 134 0
-102 -60 -97 0
-102 -60 -98 0
-102 -60 -99 0
-102 -60 -100 0
-102 -60 -101 0
-138 -60 62 0
-138 -60 98 0
-138 -60 -133 0
-138 -60 -134 0
-138 -60 -135 0
-138 -60 -136 0
-138 -60 -137 0
-169 -55 206 0
-169 -55 242 0
-169 -55 -170 0
-169 -55 -171 0
-169 -55 -172 0
-169 -55 -173 0
-169 -55 -174 0
-205 -55 170 0
-205 -55 242 0
-205 -55 -206 0
-205 -55 -207 0
-205 -55 -208 0
-205 -55 -209 0
-205 -55 -210 0
-241 -55 170 0
-241 -55 206 0
-241 -55 -242 0
-241 -55 -243 0
-241 -55 -244 0
-241 -55 -245 0
-241 -55 -246 0
-170 -56 206 0
-170 -56 242 0
-170 -56 -169 0
-170 -56 -171 0
-170 -56 -172 0
-170 -56 -173 0
-170 -56 -174 0
-206 -56 170 0
-206 -56 242 0
-206 -56 -205 0
-206 -56 -207 0
-206 -56 -208 0
-206 -56 -209 0
-206 -56 -210 0
-242 -56 170 0
-242 -56 206 0
-242 -56 -241 0
-242 -56 -243 0
-242 -56 -244 0
-242 -56 -245 0
-242 -56 -246 0
-171 -57 206 0
-171 -57 242 0
-171 -57 -169 0
-171 -57 -170 0
-171 -57 -172 0
-171 -57 -173 0
-171 -57 -174 0
-207 -57 170 0
-207 -57 242 0
-207 -57 -205 0
-207 -57 -206 0
-207 -57 -208 0
-207 -57 -209 0
-207 -57 -210 0
-243 -57 170 0
-243 -57 206 0
-243 -57 -241 0
-243 -57 -242 0
-243 -57 -244 0
-243 -57 -245 0
-243 -57 -246 0
-172 -58 206 0
-172 -58 242 0
-172 -58 -169 0
-172 -58 -170 0
-172 -58 -171 0
-172 -58 -173 0
-172 -58 -174 0
-208 -58 170 0
-208 -58 242 0
-208 -58 -205 0
-208 -58 -206 0
-208 -58 -207 0
-208 -58 -209 0
-208 -58 -210 0
-244 -58 170 0
-244 -58 206 0
-244 -58 -241 0
-244 -58 -242 0
-244 -58 -243 0
-244 -58 -245 0
-244 -58 -246 0
-173 -59 206 0
-173 -59 242 0
-173 -59 -169 0
-173 -59 -170 0
-173 -59 -171 0
-173 -59 -172 0
-173 -59 -174 0
-209 -59 170 0
-209 -59 242 0
-209 -59 -205 0
-209 -59 -206 0
-209 -59 -207 0
-209 -59 -208 0
-209 -59 -210 0
-245 -59 170 0
-245 -59 206 0
-245 -59 -241 0
-245 -59 -242 0
-245 -59 -243 0
-245 -59 -244 0
-245 -59 -246 0
-174 -60 206 0
-174 -60 242 0
-174 -60 -169 0
-174 -60 -170 0
-174 -60 -171 0
-174 -60 -172 0
-174 -60 -173 0
-210 -60 170 0
-210 -60 242 0
-210 -60 -205 0
-210 -60 -206 0
-210 -60 -207 0
-210 -60 -208 0
-210 -60 -209 0
-246 -60 170 0
-246 -60 206 0
-246 -60 -241 0
-246 -60 -242 0
-246 -60 -243 0
-246 -60 -244 0
-246 -60 -245 0
-277 -55 314 0
-277 -55 350 0
-277 -55 -278 0
-277 -55 -279 0
-277 -55 -280 0
-277 -55 -281 0
-277 -55 -282 0
-313 -55 278 0
-313 -55 350 0
-313 -55 -314 0
-313 -55 -315 0
-313 -55 -316 0
-313 -55 -317 0
-313 -55 -318 0
-349 -55 278 0
-349 -55 314 0
-349 -55 -350 0
-349 -55 -351 0
-349 -55 -352 0
-349 -55 -353 0
-349 -55 -354 0
-278 -56 314 0
-278 -56 350 0
-278 -56 -277 0
-278 -56 -279 0
-278 -56 -280 0
-278 -56 -281 0
-278 -56 -282 0
-314 -56 278 0
-314 -56 350 0
-314 -56 -313 0
-314 -56 -315 0
-314 -56 -316 0
-314 -56 -317 0
-314 -56 -318 0
-350 -56 278 0
-350 -56 314 0
-350 -56 -349 0
-350 -56 -351 0
-350 -56 -352 0
-350 -56 -353 0
-350 -56 -354 0
-279 -57 314 0
-279 -57 350 0
-279 -57 -277 0
-279 -57 -278 0
-279 -57 -280 0
-279 -57 -281 0
-279 -57 -282 0
-315 -57 278 0
-315 -57 350 0
-315 -57 -313 0
-315 -57 -314 0
-315 -57 -316 0
-315 -57 -317 0
-315 -57 -318 0
-351 -57 278 0
-351 -57 314 0
-351 -57 -349 0
-351 -57 -350 0
-351 -57 -352 0
-351 -57 -353 0
-351 -57 -354 0
-280 -58 314 0
-280 -58 350 0
-280 -58 -277 0
-280 -58 -278 0
-280 -58 -279 0
-280 -58 -281 0
-280 -58 -282 0
-316 -58 278 0
-316 -58 350 0
-316 -58 -313 0
-316 -58 -314 0
-316 -58 -315 0
-316 -58 -317 0
-316 -58 -318 0
-352 -58 278 0
-352 -58 314 0
-352 -58 -349 0
-352 -58 -350 0
-352 -58 -351 0
-352 -58 -353 0
-352 -58 -354 0
-281 -59 314 0
-281 -59 350 0
-281 -59 -277 0
-281 -59 -278 0
-281 -59 -279 0
-281 -59 -280 0
-281 -59 -282 0
-317 -59 278 0
-317 -59 350 0
-317 -59 -313 0
-317 -59 -314 0
-317 -59 -315 0
-317 -59 -316 0
-317 -59 -318 0
-353 -59 278 0
-353 -59 314 0
-353 -59 -349 0
-353 -59 -350 0
-353 -59 -351 0
-353 -59 -352 0
-353 -59 -354 0
-282 -60 314 0
-282 -60 350 0
-282 -60 -277 0
-282 -60 -278 0
-282 -60 -279 0
-282 -60 -280 0
-282 -60 -281 0
-318 -60 278 0
-318 -60 350 0
-318 -60 -313 0
-318 -60 -314 0
-318 -60 -315 0
-318 -60 -316 0
-318 -60 -317 0
-354 -60 278 0
-354 -60 314 0
-354 -60 -349 0
-354 -60 -350 0
-354 -60 -351 0
-354 -60 -352 0
-354 -60 -353 0
-385 -55 422 0
-385 -55 458 0
-385 -55 -386 0
-385 -55 -387 0
-385 -55 -388 0
-385 -55 -389 0
-385 -55 -390 0
-421 -55 386 0
-421 -55 458 0
-421 -55 -422 0
-421 -55 -423 0
-421 -55 -424 0
-421 -55 -425 0
-421 -55 -426 0
-457 -55 386 0
-457 -55 422 0
-457 -55 -458 0
-457 -55 -459 0
-457 -55 -460 0
-457 -55 -461 0
-457 -55 -462 0
-386 -56 422 0
-386 -56 458 0
-386 -56 -385 0
-386 -56 -387 0
-386 -56 -388 0
-386 -56 -389 0
-386 -56 -390 0
-422 -56 386 0
-422 -56 458 0
-422 -56 -421 0
-422 -56 -423 0
-422 -56 -424 0
-422 -56 -425 0
-422 -56 -426 0
-458 -56 386 0
-458 -56 422 0
-458 -56 -457 0
-458 -56 -459 0
-458 -56 -460 0
-458 -56 -461 0
-458 -56 -462 0
-387 -57 422 0
-387 -57 458 0
-387 -57 -385 0
-387 -57 -386 0
-387 -57 -388 0
-387 -57 -389 0
-387 -57 -390 0
-423 -57 386 0
-423 -57 458 0
-423 -57 -421 0
-423 -57 -422 0
-423 -57 -424 0
-423 -57 -425 0
-423 -57 -426 0
-459 -57 386 0
-459 -57 422 0
-459 -57 -457 0
-459 -57 -458 0
-459 -57 -460 0
-459 -57 -461 0
-459 -57 -462 0
-388 -58 422 0
-388 -58 458 0
-388 -58 -385 0
-388 -58 -386 0
-388 -58 -387 0
-388 -58 -389 0
-388 -58 -390 0
-424 -58 386 0
-424 -58 458 0
-424 -58 -421 0
-424 -58 -422 0
-424 -58 -423 0
-424 -58 -425 0
-424 -58 -426 0
-460 -58 386 0
-460 -58 422 0
-460 -58 -457 0
-460 -58 -458 0
-460 -58 -459 0
-460 -58 -461 0
-460 -58 -462 0
-389 -59 422 0
-389 -59 458 0
-389 -59 -385 0
-389 -59 -386 0
-389 -59 -387 0
-389 -59 -388 0
-389 -59 -390 0
-425 -59 386 0
-425 -59 458 0
-425 -59 -421 0
-425 -59 -422 0
-425 -59 -423 0
-425 -59 -424 0
-425 -59 -426 0
-461 -59 386 0
-461 -59 422 0
-461 -59 -457 0
-461 -59 -458 0
-461 -59 -459 0
-461 -59 -460 0
-461 -59 -462 0
-390 -60 422 0
-390 -60 458 0
-390 -60 -385 0
-390 -60 -386 0
-390 -60 -387 0
-390 -60 -388 0
-390 -60 -389 0
-426 -60 386 0
-426 -60 458 0
-426 -60 -421 0
-426 -60 -422 0
-426 -60 -423 0
-426 -60 -424 0
-426 -60 -425 0
-462 -60 386 0
-462 -60 422 0
-462 -60 -457 0
-462 -60 -458 0
-462 -60 -459 0
-462 -60 -460 0
-462 -60 -461 0
-67 -55 104 0
-67 -55 140 0
-67 -55 -68 0
-67 -55 -69 0
-67 -55 -70 0
-67 -55 -71 0
-67 -55 -72 0
-103 -55 68 0
-103 -55 140 0
-103 -55 -104 0
-103 -55 -105 0
-103 -55 -106 0
-103 -55 -107 0
-103 -55 -108 0
-139 -55 68 0
-139 -55 104 0
-139 -55 -140 0
-139 -55 -141 0
-139 -55 -142 0
-139 -55 -143 0
-139 -55 -144 0
-68 -56 104 0
-68 -56 140 0
-68 -56 -67 0
-68 -56 -69 0
-68 -56 -70 0
-68 -56 -71 0
-68 -56 -72 0
-104 -56 68 0
-104 -56 140 0
-104 -56 -103 0
-104 -56 -105 0
-104 -56 -106 0
-104 -56 -107 0
-104 -56 -108 0
-140 -56 68 0
-140 -56 104 0
-140 -56 -139 0
-140 -56 -141 0
-140 -56 -142 0
-140 -56 -143 0
-140 -56 -144 0
-69 -57 104 0
-69 -57 140 0
-69 -57 -67 0
-69 -57 -68 0
-69 -57 -70 0
-69 -57 -71 0
-69 -57 -72 0
-105 -57 68 0
-105 -57 140 0
-105 -57 -103 0
-105 -57 -104 0
-105 -57 -106 0
-105 -57 -107 0
-105 -57 -108 0
-141 -57 68 0
-141 -57 104 0
-141 -57 -139 0
-141 -57 -140 0
-141 -57 -142 0
-141 -57 -143 0
-141 -57 -144 0
-70 -58 104 0
-70 -58 140 0
-70 -58 -67 0
-70 -58 -68 0
-70 -58 -69 0
-70 -58 -71 0
-70 -58 -72 0
-106 -58 68 0
-106 -58 140 0
-106 -58 -103 0
-106 -58 -104 0
-106 -58 -105 0
-106 -58 -107 0
-106 -58 -108 0
-142 -58 68 0
-142 -58 104 0
-142 -58 -139 0
-142 -58 -140 0
-142 -58 -141 0
-142 -58 -143 0
-142 -58 -144 0
-71 -59 104 0
-71 -59 140 0
-71 -59 -67 0
-71 -59 -68 0
-71 -59 -69 0
-71 -59 -70 0
-71 -59 -72 0
-107 -59 68 0
-107 -59 140 0
-107 -59 -103 0
-107 -59 -104 0
-107 -59 -105 0
-107 -59 -106 0
-107 -59 -108 0
-143 -59 68 0
-143 -59 104 0
-143 -59 -139 0
-143 -59 -140 0
-143 -59 -141 0
-143 -59 -142 0
-143 -59 -144 0
-72 -60 104 0
-72 -60 140 0
-72 -60 -67 0
-72 -60 -68 0
-72 -60 -69 0
-72 -60 -70 0
-72 -60 -71 0
-108 -60 68 0
-108 -60 140 0
-108 -60 -103 0
-108 -60 -104 0
-108 -60 -105 0
-108 -60 -106 0
-108 -60 -107 0
-144 -60 68 0
-144 -60 104 0
-144 -60 -139 0
-144 -60 -140 0
-144 -60 -141 0
-144 -60 -142 0
-144 -60 -143 0
-175 -55 212 0
-175 -55 248 0
-175 -55 -176 0
-175 -55 -177 0
-175 -55 -178 0
-175 -55 -179 0
-175 -55 -180 0
-211 -55 176 0
-211 -55 248 0
-211 -55 -212 0
-211 -55 -213 0
-211 -55 -214 0
-211 -55 -215 0
-211 -55 -216 0
-247 -55 176 0
-247 -55 212 0
-247 -55 -248 0
-247 -55 -249 0
-247 -55 -250 0
-247 -55 -251 0
-247 -55 -252 0
-176 -56 212 0
-176 -56 248 0
-176 -56 -175 0
-176 -56 -177 0
-176 -56 -178 0
-176 -56 -179 0
-176 -56 -180 0
-212 -56 176 0
-212 -56 248 0
-212 -56 -211 0
-212 -56 -213 0
-212 -56 -214 0
-212 -56 -215 0
-212 -56 -216 0
-248 -56 176 0
-248 -56 212 0
-248 -56 -247 0
-248 -56 -249 0
-248 -56 -250 0
-248 -56 -251 0
-248 -56 -252 0
-177 -57 212 0
-177 -57 248 0
-177 -57 -175 0
-177 -57 -176 0
-177 -57 -178 0
-177 -57 -179 0
-177 -57 -180 0
-213 -57 176 0
-213 -57 248 0
-213 -57 -211 0
-213 -57 -212 0
-213 -57 -214 0
-213 -57 -215 0
-213 -57 -216 0
-249 -57 176 0
-249 -57 212 0
-249 -57 -247 0
-249 -57 -248 0
-249 -57 -250 0
-249 -57 -251 0
-249 -57 -252 0
-178 -58 212 0
-178 -58 248 0
-178 -58 -175 0
-178 -58 -176 0
-178 -58 -177 0
-178 -58 -179 0
-178 -58 -180 0
-214 -58 176 0
-214 -58 248 0
-214 -58 -211 0
-214 -58 -212 0
-214 -58 -213 0
-214 -58 -215 0
-214 -58 -216 0
-250 -58 176 0
-250 -58 212 0
-250 -58 -247 0
-250 -58 -248 0
-250 -58 -249 0
-250 -58 -251 0
-250 -58 -252 0
-179 -59 212 0
-179 -59 248 0
-179 -59 -175 0
-179 -59 -176 0
-179 -59 -177 0
-179 -59 -178 0
-179 -59 -180 0
-215 -59 176 0
-215 -59 248 0
-215 -59 -211 0
-215 -59 -212 0
-215 -59 -213 0
-215 -59 -214 0
-215 -59 -216 0
-251 -59 176 0
-251 -59 212 0
-251 -59 -247 0
-251 -59 -248 0
-251 -59 -249 0
-251 -59 -250 0
-251 -59 -252 0
-180 -60 212 0
-180 -60 248 0
-180 -60 -175 0
-180 -60 -176 0
-180 -60 -177 0
-180 -60 -178 0
-180 -60 -179 0
-216 -60 176 0
-216 -60 248 0
-216 -60 -211 0
-216 -60 -212 0
-216 -60 -213 0
-216 -60 -214 0
-216 -60 -215 0
-252 -60 176 0
-252 -60 212 0
-252 -60 -247 0
-252 -60 -248 0
-252 -60 -249 0
-252 -60 -250 0
-252 -60 -251 0
-283 -55 320 0
-283 -55 356 0
-283 -55 -284 0
-283 -55 -285 0
-283 -55 -286 0
-283 -55 -287 0
-283 -55 -288 0
-319 -55 284 0
-319 -55 356 0
-319 -55 -320 0
-319 -55 -321 0
-319 -55 -322 0
-319 -55 -323 0
-319 -55 -324 0
-355 -55 284 0
-355 -55 320 0
-355 -55 -356 0
-355 -55 -357 0
-355 -55 -358 0
-355 -55 -359 0
-355 -55 -360 0
-284 -56 320 0
-284 -56 356 0
-284 -56 -283 0
-284 -56 -285 0
-284 -56 -286 0
-284 -56 -287 0
-284 -56 -288 0
-320 -56 284 0
-320 -56 356 0
-320 -56 -319 0
-320 -56 -321 0
-320 -56 -322 0
-320 -56 -323 0
-320 -56 -324 0
-356 -56 284 0
-356 -56 320 0
-356 -56 -355 0
-356 -56 -357 0
-356 -56 -358 0
-356 -56 -359 0
-356 -56 -360 0
-285 -57 320 0
-285 -57 356 0
-285 -57 -283 0
-285 -57 -284 0
-285 -57 -286 0
-285 -57 -287 0
-285 -57 -288 0
-321 -57 284 0
-321 -57 356 0
-321 -57 -319 0
-321 -57 -320 0
-321 -57 -322 0
-321 -57 -323 0
-321 -57 -324 0
-357 -57 284 0
-357 -57 320 0
-357 -57 -355 0
-357 -57 -356 0
-357 -57 -358 0
-357 -57 -359 0
-357 -57 -360 0
-286 -58 320 0
-286 -58 356 0
-286 -58 -283 0
-286 -58 -284 0
-286 -58 -285 0
-286 -58 -287 0
-286 -58 -288 0
-322 -58 284 0
-322 -58 356 0
-322 -58 -319 0
-322 -58 -320 0
-322 -58 -321 0
-322 -58 -323 0
-322 -58 -324 0
-358 -58 284 0
-358 -58 320 0
-358 -58 -355 0
-358 -58 -356 0
-358 -58 -357 0
-358 -58 -359 0
-358 -58 -360 0
-287 -59 320 0
-287 -59 356 0
-287 -59 -283 0
-287 -59 -284 0
-287 -59 -285 0
-287 -59 -286 0
-287 -59 -288 0
-323 -59 284 0
-323 -59 356 0
-323 -59 -319 0
-323 -59 -320 0
-323 -59 -321 0
-323 -59 -322 0
-323 -59 -324 0
-359 -59 284 0
-359 -59 320 0
-359 -59 -355 0
-359 -59 -356 0
-359 -59 -357 0
-359 -59 -358 0
-359 -59 -360 0
-288 -60 320 0
-288 -60 356 0
-288 -60 -283 0
-288 -60 -284 0
-288 -60 -285 0
-288 -60 -286 0
-288 -60 -287 0
-324 -60 284 0
-324 -60 356 0
-324 -60 -319 0
-324 -60 -320 0
-324 -60 -321 0
-324 -60 -322 0
-324 -60 -323 0
-360 -60 284 0
-360 -60 320 0
-360 -60 -355 0
-360 -60 -356 0
-360 -60 -357 0
-360 -60 -358 0
-360 -60 -359 0
-391 -55 428 0
-391 -55 464 0
-391 -55 -392 0
-391 -55 -393 0
-391 -55 -394 0
-391 -55 -395 0
-391 -55 -396 0
-427 -55 392 0
-427 -55 464 0
-427 -55 -428 0
-427 -55 -429 0
-427 -55 -430 0
-427 -55 -431 0
-427 -55 -432 0
-463 -55 392 0
-463 -55 428 0
-463 -55 -464 0
-463 -55 -465 0
-463 -55 -466 0
-463 -55 -467 0
-463 -55 -468 0
-392 -56 428 0
-392 -56 464 0
-392 -56 -391 0
-392 -56 -393 0
-392 -56 -394 0
-392 -56 -395 0
-392 -56 -396 0
-428 -56 392 0
-428 -56 464 0
-428 -56 -427 0
-428 -56 -429 0
-428 -56 -430 0
-428 -56 -431 0
-428 -56 -432 0
-464 -56 392 0
-464 -56 428 0
-464 -56 -463 0
-464 -56 -465 0
-464 -56 -466 0
-464 -56 -467 0
-464 -56 -468 0
-393 -57 428 0
-393 -57 464 0
-393 -57 -391 0
-393 -57 -392 0
-393 -57 -394 0
-393 -57 -395 0
-393 -57 -396 0
-429 -57 392 0
-429 -57 464 0
-429 -57 -427 0
-429 -57 -428 0
-429 -57 -430 0
-429 -57 -431 0
-429 -57 -432 0
-465 -57 392 0
-465 -57 428 0
-465 -57 -463 0
-465 -57 -464 0
-465 -57 -466 0
-465 -57 -467 0
-465 -57 -468 0
-394 -58 428 0
-394 -58 464 0
-394 -58 -391 0
-394 -58 -392 0
-394 -58 -393 0
-394 -58 -395 0
-394 -58 -396 0
-430 -58 392 0
-430 -58 464 0
-430 -58 -427 0
-430 -58 -428 0
-430 -58 -429 0
-430 -58 -431 0
-430 -58 -432 0
-466 -58 392 0
-466 -58 428 0
-466 -58 -463 0
-466 -58 -464 0
-466 -58 -465 0
-466 -58 -467 0
-466 -58 -468 0
-395 -59 428 0
-395 -59 464 0
-395 -59 -391 0
-395 -59 -392 0
-395 -59 -393 0
-395 -59 -394 0
-395 -59 -396 0
-431 -59 392 0
-431 -59 464 0
-431 -59 -427 0
-431 -59 -428 0
-431 -59 -429 0
-431 -59 -430 0
-431 -59 -432 0
-467 -59 392 0
-467 -59 428 0
-467 -59 -463 0
-467 -59 -464 0
-467 -59 -465 0
-467 -59 -466 0
-467 -59 -468 0
-396 -60 428 0
-396 -60 464 0
-396 -60 -391 0
-396 -60 -392 0
-396 -60 -393 0
-396 -60 -394 0
-396 -60 -395 0
-432 -60 392 0
-432 -60 464 0
-432 -60 -427 0
-432 -60 -428 0
-432 -60 -429 0
-432 -60 -430 0
-432 -60 -431 0
-468 -60 392 0
-468 -60 428 0
-468 -60 -463 0
-468 -60 -464 0
-468 -60 -465 0
-468 -60 -466 0
-468 -60 -467 0
-73 -55 110 0
-73 -55 146 0
-73 -55 -74 0
-73 -55 -75 0
-73 -55 -76 0
-73 -55 -77 0
-73 -55 -78 0
-109 -55 74 0
-109 -55 146 0
-109 -55 -110 0
-109 -55 -111 0
-109 -55 -112 0
-109 -55 -113 0
-109 -55 -114 0
-145 -55 74 0
-145 -55 110 0
-145 -55 -146 0
-145 -55 -147 0
-145 -55 -148 0
-145 -55 -149 0
-145 -55 -150 0
-74 -56 110 0
-74 -56 146 0
-74 -56 -73 0
-74 -56 -75 0
-74 -56 -76 0
-74 -56 -77 0
-74 -56 -78 0
-110 -56 74 0
-110 -56 146 0
-110 -56 -109 0
-110 -56 -111 0
-110 -56 -112 0
-110 -56 -113 0
-110 -56 -114 0
-146 -56 74 0
-146 -56 110 0
-146 -56 -145 0
-146 -56 -147 0
-146 -56 -148 0
-146 -56 -149 0
-146 -56 -150 0
-75 -57 110 0
-75 -57 146 0
-75 -57 -73 0
-75 -57 -74 0
-75 -57 -76 0
-75 -57 -77 0
-75 -57 -78 0
-111 -57 74 0
-111 -57 146 0
-111 -57 -109 0
-111 -57 -110 0
-111 -57 -112 0
-111 -57 -113 0
-111 -57 -114 0
-147 -57 74 0
-147 -57 110 0
-147 -57 -145 0
-147 -57 -146 0
-147 -57 -148 0
-147 -57 -149 0
-147 -57 -150 0
-76 -58 110 0
-76 -58 146 0
-76 -58 -73 0
-76 -58 -74 0
-76 -58 -75 0
-76 -58 -77 0
-76 -58 -78 0
-112 -58 74 0
-112 -58 146 0
-112 -58 -109 0
-112 -58 -110 0
-112 -58 -111 0
-112 -58 -113 0
-112 -58 -114 0
-148 -58 74 0
-148 -58 110 0
-148 -58 -145 0
-148 -58 -146 0
-148 -58 -147 0
-148 -58 -149 0
-148 -58 -150 0
-77 -59 110 0
-77 -59 146 0
-77 -59 -73 0
-77 -59 -74 0
-77 -59 -75 0
-77 -59 -76 0
-77 -59 -78 0
-113 -59 74 0
-113 -59 146 0
-113 -59 -109 0
-113 -59 -110 0
-113 -59 -111 0
-113 -59 -112 0
-113 -59 -114 0
-149 -59 74 0
-149 -59 110 0
-149 -59 -145 0
-149 -59 -146 0
-149 -59 -147 0
-149 -59 -148 0
-149 -59 -150 0
-78 -60 110 0
-78 -60 146 0
-78 -60 -73 0
-78 -60 -74 0
-78 -60 -75 0
-78 -60 -76 0
-78 -60 -77 0
-114 -60 74 0
-114 -60 146 0
-114 -60 -109 0
-114 -60 -110 0
-114 -60 -111 0
-114 -60 -112 0
-114 -60 -113 0
-150 -60 74 0
-150 -60 110 0
-150 -60 -145 0
-150 -60 -146 0
-150 -60 -147 0
-150 -60 -148 0
-150 -60 -149 0
-181 -55 218 0
-181 -55 254 0
-181 -55 -182 0
-181 -55 -183 0
-181 -55 -184 0
-181 -55 -185 0
-181 -55 -186 0
-217 -55 182 0
-217 -55 254 0
-217 -55 -218 0
-217 -55 -219 0
-217 -55 -220 0
-217 -55 -221 0
-217 -55 -222 0
-253 -55 182 0
-253 -55 218 0
-253 -55 -254 0
-253 -55 -255 0
-253 -55 -256 0
-253 -55 -257 0
-253 -55 -258 0
-182 -56 218 0
-182 -56 254 0
-182 -56 -181 0
-182 -56 -183 0
-182 -56 -184 0
-182 -56 -185 0
-182 -56 -186 0
-218 -56 182 0
-218 -56 254 0
-218 -56 -217 0
-218 -56 -219 0
-218 -56 -220 0
-218 -56 -221 0
-218 -56 -222 0
-254 -56 182 0
-254 -56 218 0
-254 -56 -253 0
-254 -56 -255 0
-254 -56 -256 0
-254 -56 -257 0
-254 -56 -258 0
-183 -57 218 0
-183 -57 254 0
-183 -57 -181 0
-183 -57 -182 0
-183 -57 -184 0
-183 -57 -185 0
-183 -57 -186 0
-219 -57 182 0
-219 -57 254 0
-219 -57 -217 0
-219 -57 -218 0
-219 -57 -220 0
-219 -57 -221 0
-219 -57 -222 0
-255 -57 182 0
-255 -57 218 0
-255 -57 -253 0
-255 -57 -254 0
-255 -57 -256 0
-255 -57 -257 0
-255 -57 -258 0
-184 -58 218 0
-184 -58 254 0
-184 -58 -181 0
-184 -58 -182 0
-184 -58 -183 0
-184 -58 -185 0
-184 -58 -186 0
-220 -58 182 0
-220 -58 254 0
-220 -58 -217 0
-220 -58 -218 0
-220 -58 -219 0
-220 -58 -221 0
-220 -58 -222 0
-256 -58 182 0
-256 -58 218 0
-256 -58 -253 0
-256 -58 -254 0
-256 -58 -255 0
-256 -58 -257 0
-256 -58 -258 0
-185 -59 218 0
-185 -59 254 0
-185 -59 -181 0
-185 -59 -182 0
-185 -59 -183 0
-185 -59 -184 0
-185 -59 -186 0
-221 -59 182 0
-221 -59 254 0
-221 -59 -217 0
-221 -59 -218 0
-221 -59 -219 0
-221 -59 -220 0
-221 -59 -222 0
-257 -59 182 0
-257 -59 218 0
-257 -59 -253 0
-257 -59 -254 0
-257 -59 -255 0
-257 -59 -256 0
-257 -59 -258 0
-186 -60 218 0
-186 -60 254 0
-186 -60 -181 0
-186 -60 -182 0
-186 -60 -183 0
-186 -60 -184 0
-186 -60 -185 0
-222 -60 182 0
-222 -60 254 0
-222 -60 -217 0
-222 -60 -218 0
-222 -60 -219 0
-222 -60 -220 0
-222 -60 -221 0
-258 -60 182 0
-258 -60 218 0
-258 -60 -253 0
-258 -60 -254 0
-258 -60 -255 0
-258 -60 -256 0
-258 -60 -257 0
-289 -55 326 0
-289 -55 362 0
-289 -55 -290 0
-289 -55 -291 0
-289 -55 -292 0
-289 -55 -293 0
-289 -55 -294 0
-325 -55 290 0
-325 -55 362 0
-325 -55 -326 0
-325 -55 -327 0
-325 -55 -328 0
-325 -55 -329 0
-325 -55 -330 0
-361 -55 290 0
-361 -55 326 0
-361 -55 -362 0
-361 -55 -363 0
-361 -55 -364 0
-361 -55 -365 0
-361 -55 -366 0
-290 -56 326 0
-290 -56 362 0
-290 -56 -289 0
-290 -56 -291 0
-290 -56 -292 0
-290 -56 -293 0
-290 -56 -294 0
-326 -56 290 0
-326 -56 362 0
-326 -56 -325 0
-326 -56 -327 0
-326 -56 -328 0
-326 -56 -329 0
-326 -56 -330 0
-362 -56 290 0
-362 -56 326 0
-362 -56 -361 0
-362 -56 -363 0
-362 -56 -364 0
-362 -56 -365 0
-362 -56 -366 0
-291 -57 326 0
-291 -57 362 0
-291 -57 -289 0
-291 -57 -290 0
-291 -57 -292 0
-291 -57 -293 0
-291 -57 -294 0
-327 -57 290 0
-327 -57 362 0
-327 -57 -325 0
-327 -57 -326 0
-327 -57 -328 0
-327 -57 -329 0
-327 -57 -330 0
-363 -57 290 0
-363 -57 326 0
-363 -57 -361 0
-363 -57 -362 0
-363 -57 -364 0
-363 -57 -365 0
-363 -57 -366 0
-292 -58 326 0
-292 -58 362 0
-292 -58 -289 0
-292 -58 -290 0
-292 -58 -291 0
-292 -58 -293 0
-292 -58 -294 0
-328 -58 290 0
-328 -58 362 0
-328 -58 -325 0
-328 -58 -326 0
-328 -58 -327 0
-328 -58 -329 0
-328 -58 -330 0
-364 -58 290 0
-364 -58 326 0
-364 -58 -361 0
-364 -58 -362 0
-364 -58 -363 0
-364 -58 -365 0
-364 -58 -366 0
-293 -59 326 0
-293 -59 362 0
-293 -59 -289 0
-293 -59 -290 0
-293 -59 -291 0
-293 -59 -292 0
-293 -59 -294 0
-329 -59 290 0
-329 -59 362 0
-329 -59 -325 0
-329 -59 -326 0
-329 -59 -327 0
-329 -59 -328 0
-329 -59 -330 0
-365 -59 290 0
-365 -59 326 0
-365 -59 -361 0
-365 -59 -362 0
-365 -59 -363 0
-365 -59 -364 0
-365 -59 -366 0
-294 -60 326 0
-294 -60 362 0
-294 -60 -289 0
-294 -60 -290 0
-294 -60 -291 0
-294 -60 -292 0
-294 -60 -293 0
-330 -60 290 0
-330 -60 362 0
-330 -60 -325 0
-330 -60 -326 0
-330 -60 -327 0
-330 -60 -328 0
-330 -60 -329 0
-366 -60 290 0
-366 -60 326 0
-366 -60 -361 0
-366 -60 -362 0
-366 -60 -363 0
-366 -60 -364 0
-366 -60 -365 0
-397 -55 434 0
-397 -55 470 0
-397 -55 -398 0
-397 -55 -399 0
-397 -55 -400 0
-397 -55 -401 0
-397 -55 -402 0
-433 -55 398 0
-433 -55 470 0
-433 -55 -434 0
-433 -55 -435 0
-433 -55 -436 0
-433 -55 -437 0
-433 -55 -438 0
-469 -55 398 0
-469 -55 434 0
-469 -55 -470 0
-469 -55 -471 0
-469 -55 -472 0
-469 -55 -473 0
-469 -55 -474 0
-398 -56 434 0
-398 -56 470 0
-398 -56 -397 0
-398 -56 -399 0
-398 -56 -400 0
-398 -56 -401 0
-398 -56 -402 0
-434 -56 398 0
-434 -56 470 0
-434 -56 -433 0
-434 -56 -435 0
-434 -56 -436 0
-434 -56 -437 0
-434 -56 -438 0
-470 -56 398 0
-470 -56 434 0
-470 -56 -469 0
-470 -56 -471 0
-470 -56 -472 0
-470 -56 -473 0
-470 -56 -474 0
-399 -57 434 0
-399 -57 470 0
-399 -57 -397 0
-399 -57 -398 0
-399 -57 -400 0
-399 -57 -401 0
-399 -57 -402 0
-435 -57 398 0
-435 -57 470 0
-435 -57 -433 0
-435 -57 -434 0
-435 -57 -436 0
-435 -57 -437 0
-435 -57 -438 0
-471 -57 398 0
-471 -57 434 0
-471 -57 -469 0
-471 -57 -470 0
-471 -57 -472 0
-471 -57 -473 0
-471 -57 -474 0
-400 -58 434 0
-400 -58 470 0
-400 -58 -397 0
-400 -58 -398 0
-400 -58 -399 0
-400 -58 -401 0
-400 -58 -402 0
-436 -58 398 0
-436 -58 470 0
-436 -58 -433 0
-436 -58 -434 0
-436 -58 -435 0
-436 -58 -437 0
-436 -58 -438 0
-472 -58 398 0
-472 -58 434 0
-472 -58 -469 0
-472 -58 -470 0
-472 -58 -471 0
-472 -58 -473 0
-472 -58 -474 0
-401 -59 434 0
-401 -59 470 0
-401 -59 -397 0
-401 -59 -398 0
-401 -59 -399 0
-401 -59 -400 0
-401 -59 -402 0
-437 -59 398 0
-437 -59 470 0
-437 -59 -433 0
-437 -59 -434 0
-437 -59 -435 0
-437 -59 -436 0
-437 -59 -438 0
-473 -59 398 0
-473 -59 434 0
-473 -59 -469 0
-473 -59 -470 0
-473 -59 -471 0
-473 -59 -472 0
-473 -59 -474 0
-402 -60 434 0
-402 -60 470 0
-402 -60 -397 0
-402 -60 -398 0
-402 -60 -399 0
-402 -60 -400 0
-402 -60 -401 0
-438 -60 398 0
-438 -60 470 0
-438 -60 -433 0
-438 -60 -434 0
-438 -60 -435 0
-438 -60 -436 0
-438 -60 -437 0
-474 -60 398 0
-474 -60 434 0
-474 -60 -469 0
-474 -60 -470 0
-474 -60 -471 0
-474 -60 -472 0
-474 -60 -473 0
-79 -55 116 0
-79 -55 152 0
-79 -55 -80 0
-79 -55 -81 0
-79 -55 -82 0
-79 -55 -83 0
-79 -55 -84 0
-115 -55 80 0
-115 -55 152 0
-115 -55 -116 0
-115 -55 -117 0
-115 -55 -118 0
-115 -55 -119 0
-115 -55 -120 0
-151 -55 80 0
-151 -55 116 0
-151 -55 -152 0
-151 -55 -153 0
-151 -55 -154 0
-151 -55 -155 0
-151 -55 -156 0
-80 -56 116 0
-80 -56 152 0
-80 -56 -79 0
-80 -56 -81 0
-80 -56 -82 0
-80 -56 -83 0
-80 -56 -84 0
-116 -56 80 0
-116 -56 152 0
-116 -56 -115 0
-116 -56 -117 0
-116 -56 -118 0
-116 -56 -119 0
-116 -56 -120 0
-152 -56 80 0
-152 -56 116 0
-152 -56 -151 0
-152 -56 -153 0
-152 -56 -154 0
-152 -56 -155 0
-152 -56 -156 0
-81 -57 116 0
-81 -57 152 0
-81 -57 -79 0
-81 -57 -80 0
-81 -57 -82 0
-81 -57 -83 0
-81 -57 -84 0
-117 -57 80 0
-117 -57 152 0
-117 -57 -115 0
-117 -57 -116 0
-117 -57 -118 0
-117 -57 -119 0
-117 -57 -120 0
-153 -57 80 0
-153 -57 116 0
-153 -57 -151 0
-153 -57 -152 0
-153 -57 -154 0
-153 -57 -155 0
-153 -57 -156 0
-82 -58 116 0
-82 -58 152 0
-82 -58 -79 0
-82 -58 -80 0
-82 -58 -81 0
-82 -58 -83 0
-82 -58 -84 0
-118 -58 80 0
-118 -58 152 0
-118 -58 -115 0
-118 -58 -116 0
-118 -58 -117 0
-118 -58 -119 0
-118 -58 -120 0
-154 -58 80 0
-154 -58 116 0
-154 -58 -151 0
-154 -58 -152 0
-154 -58 -153 0
-154 -58 -155 0
-154 -58 -156 0
-83 -59 116 0
-83 -59 152 0
-83 -59 -79 0
-83 -59 -80 0
-83 -59 -81 0
-83 -59 -82 0
-83 -59 -84 0
-119 -59 80 0
-119 -59 152 0
-119 -59 -115 0
-119 -59 -116 0
-119 -59 -117 0
-119 -59 -118 0
-119 -59 -120 0
-155 -59 80 0
-155 -59 116 0
-155 -59 -151 0
-155 -59 -152 0
-155 -59 -153 0
-155 -59 -154 0
-155 -59 -156 0
-84 -60 116 0
-84 -60 152 0
-84 -60 -79 0
-84 -60 -80 0
-84 -60 -81 0
-84 -60 -82 0
-84 -60 -83 0
-120 -60 80 0
-120 -60 152 0
-120 -60 -115 0
-120 -60 -116 0
-120 -60 -117 0
-120 -60 -118 0
-120 -60 -119 0
-156 -60 80 0
-156 -60 116 0
-156 -60 -151 0
-156 -60 -152 0
-156 -60 -153 0
-156 -60 -154 0
-156 -60 -155 0
-187 -55 224 0
-187 -55 260 0
-187 -55 -188 0
-187 -55 -189 0
-187 -55 -190 0
-187 -55 -191 0
-187 -55 -192 0
-223 -55 188 0
-223 -55 260 0
-223 -55 -224 0
-223 -55 -225 0
-223 -55 -226 0
-223 -55 -227 0
-223 -55 -228 0
-259 -55 188 0
-259 -55 224 0
-259 -55 -260 0
-259 -55 -261 0
-259 -55 -262 0
-259 -55 -263 0
-259 -55 -264 0
-188 -56 224 0
-188 -56 260 0
-188 -56 -187 0
-188 -56 -189 0
-188 -56 -190 0
-188 -56 -191 0
-188 -56 -192 0
-224 -56 188 0
-224 -56 260 0
-224 -56 -223 0
-224 -56 -225 0
-224 -56 -226 0
-224 -56 -227 0
-224 -56 -228 0
-260 -56 188 0
-260 -56 224 0
-260 -56 -259 0
-260 -56 -261 0
-260 -56 -262 0
-260 -56 -263 0
-260 -56 -264 0
-189 -57 224 0
-189 -57 260 0
-189 -57 -187 0
-189 -57 -188 0
-189 -57 -190 0
-189 -57 -191 0
-189 -57 -192 0
-225 -57 188 0
-225 -57 260 0
-225 -57 -223 0
-225 -57 -224 0
-225 -57 -226 0
-225 -57 -227 0
-225 -57 -228 0
-261 -57 188 0
-261 -57 224 0
-261 -57 -259 0
-261 -57 -260 0
-261 -57 -262 0
-261 -57 -263 0
-261 -57 -264 0
-190 -58 224 0
-190 -58 260 0
-190 -58 -187 0
-190 -58 -188 0
-190 -58 -189 0
-190 -58 -191 0
-190 -58 -192 0
-226 -58 188 0
-226 -58 260 0
-226 -58 -223 0
-226 -58 -224 0
-226 -58 -225 0
-226 -58 -227 0
-226 -58 -228 0
-262 -58 188 0
-262 -58 224 0
-262 -58 -259 0
-262 -58 -260 0
-262 -58 -261 0
-262 -58 -263 0
-262 -58 -264 0
-191 -59 224 0
-191 -59 260 0
-191 -59 -187 0
-191 -59 -188 0
-191 -59 -189 0
-191 -59 -190 0
-191 -59 -192 0
-227 -59 188 0
-227 -59 260 0
-227 -59 -223 0
-227 -59 -224 0
-227 -59 -225 0
-227 -59 -226 0
-227 -59 -228 0
-263 -59 188 0
-263 -59 224 0
-263 -59 -259 0
-263 -59 -260 0
-263 -59 -261 0
-263 -59 -262 0
-263 -59 -264 0
-192 -60 224 0
-192 -60 260 0
-192 -60 -187 0
-192 -60 -188 0
-192 -60 -189 0
-192 -60 -190 0
-192 -60 -191 0
-228 -60 188 0
-228 -60 260 0
-228 -60 -223 0
-228 -60 -224 0
-228 -60 -225 0
-228 -60 -226 0
-228 -60 -227 0
-264 -60 188 0
-264 -60 224 0
-264 -60 -259 0
-264 -60 -260 0
-264 -60 -261 0
-264 -60 -262 0
-264 -60 -263 0
-295 -55 332 0
-295 -55 368 0
-295 -55 -296 0
-295 -55 -297 0
-295 -55 -298 0
-295 -55 -299 0
-295 -55 -300 0
-331 -55 296 0
-331 -55 368 0
-331 -55 -332 0
-331 -55 -333 0
-331 -55 -334 0
-331 -55 -335 0
-331 -55 -336 0
-367 -55 296 0
-367 -55 332 0
-367 -55 -368 0
-367 -55 -369 0
-367 -55 -370 0
-367 -55 -371 0
-367 -55 -372 0
-296 -56 332 0
-296 -56 368 0
-296 -56 -295 0
-296 -56 -297 0
-296 -56 -298 0
-296 -56 -299 0
-296 -56 -300 0
-332 -56 296 0
-332 -56 368 0
-332 -56 -331 0
-332 -56 -333 0
-332 -56 -334 0
-332 -56 -335 0
-332 -56 -336 0
-368 -56 296 0
-368 -56 332 0
-368 -56 -367 0
-368 -56 -369 0
-368 -56 -370 0
-368 -56 -371 0
-368 -56 -372 0
-297 -57 332 0
-297 -57 368 0
-297 -57 -295 0
-297 -57 -296 0
-297 -57 -298 0
-297 -57 -299 0
-297 -57 -300 0
-333 -57 296 0
-333 -57 368 0
-333 -57 -331 0
-333 -57 -332 0
-333 -57 -334 0
-333 -57 -335 0
-333 -57 -336 0
-369 -57 296 0
-369 -57 332 0
-369 -57 -367 0
-369 -57 -368 0
-369 -57 -370 0
-369 -57 -371 0
-369 -57 -372 0
-298 -58 332 0
-298 -58 368 0
-298 -58 -295 0
-298 -58 -296 0
-298 -58 -297 0
-298 -58 -299 0
-298 -58 -300 0
-334 -58 296 0
-334 -58 368 0
-334 -58 -331 0
-334 -58 -332 0
-334 -58 -333 0
-334 -58 -335 0
-334 -58 -336 0
-370 -58 296 0
-370 -58 332 0
-370 -58 -367 0
-370 -58 -368 0
-370 -58 -369 0
-370 -58 -371 0
-370 -58 -372 0
-299 -59 332 0
-299 -59 368 0
-299 -59 -295 0
-299 -59 -296 0
-299 -59 -297 0
-299 -59 -298 0
-299 -59 -300 0
-335 -59 296 0
-335 -59 368 0
-335 -59 -331 0
-335 -59 -332 0
-335 -59 -333 0
-335 -59 -334 0
-335 -59 -336 0
-371 -59 296 0
-371 -59 332 0
-371 -59 -367 0
-371 -59 -368 0
-371 -59 -369 0
-371 -59 -370 0
-371 -59 -372 0
-300 -60 332 0
-300 -60 368 0
-300 -60 -295 0
-300 -60 -296 0
-300 -60 -297 0
-300 -60 -298 0
-300 -60 -299 0
-336 -60 296 0
-336 -60 368 0
-336 -60 -331 0
-336 -60 -332 0
-336 -60 -333 0
-336 -60 -334 0
-336 -60 -335 0
-372 -60 296 0
-372 -60 332 0
-372 -60 -367 0
-372 -60 -368 0
-372 -60 -369 0
-372 -60 -370 0
-372 -60 -371 0
-403 -55 440 0
-403 -55 476 0
-403 -55 -404 0
-403 -55 -405 0
-403 -55 -406 0
-403 -55 -407 0
-403 -55 -408 0
-439 -55 404 0
-439 -55 476 0
-439 -55 -440 0
-439 -55 -441 0
-439 -55 -442 0
-439 -55 -443 0
-439 -55 -444 0
-475 -55 404 0
-475 -55 440 0
-475 -55 -476 0
-475 -55 -477 0
-475 -55 -478 0
-475 -55 -479 0
-475 -55 -480 0
-404 -56 440 0
-404 -56 476 0
-404 -56 -403 0
-404 -56 -405 0
-404 -56 -406 0
-404 -56 -407 0
-404 -56 -408 0
-440 -56 404 0
-440 -56 476 0
-440 -56 -439 0
-440 -56 -441 0
-440 -56 -442 0
-440 -56 -443 0
-440 -56 -444 0
-476 -56 404 0
-476 -56 440 0
-476 -56 -475 0
-476 -56 -477 0
-476 -56 -478 0
-476 -56 -479 0
-476 -56 -480 0
-405 -57 440 0
-405 -57 476 0
-405 -57 -403 0
-405 -57 -404 0
-405 -57 -406 0
-405 -57 -407 0
-405 -57 -408 0
-441 -57 404 0
-441 -57 476 0
-441 -57 -439 0
-441 -57 -440 0
-441 -57 -442 0
-441 -57 -443 0
-441 -57 -444 0
-477 -57 404 0
-477 -57 440 0
-477 -57 -475 0
-477 -57 -476 0
-477 -57 -478 0
-477 -57 -479 0
-477 -57 -480 0
-406 -58 440 0
-406 -58 476 0
-406 -58 -403 0
-406 -58 -404 0
-406 -58 -405 0
-406 -58 -407 0
-406 -58 -408 0
-442 -58 404 0
-442 -58 476 0
-442 -58 -439 0
-442 -58 -440 0
-442 -58 -441 0
-442 -58 -443 0
-442 -58 -444 0
-478 -58 404 0
-478 -58 440 0
-478 -58 -475 0
-478 -58 -476 0
-478 -58 -477 0
-478 -58 -479 0
-478 -58 -480 0
-407 -59 440 0
-407 -59 476 0
-407 -59 -403 0
-407 -59 -404 0
-407 -59 -405 0
-407 -59 -406 0
-407 -59 -408 0
-443 -59 404 0
-443 -59 476 0
-443 -59 -439 0
-443 -59 -440 0
-443 -59 -441 0
-443 -59 -442 0
-443 -59 -444 0
-479 -59 404 0
-479 -59 440 0
-479 -59 -475 0
-479 -59 -476 0
-479 -59 -477 0
-479 -59 -478 0
-479 -59 -480 0
-408 -60 440 0
-408 -60 476 0
-408 -60 -403 0
-408 -60 -404 0
-408 -60 -405 0
-408 -60 -406 0
-408 -60 -407 0
-444 -60 404 0
-444 -60 476 0
-444 -60 -439 0
-444 -60 -440 0
-444 -60 -441 0
-444 -60 -442 0
-444 -60 -443 0
-480 -60 404 0
-480 -60 440 0
-480 -60 -475 0
-480 -60 -476 0
-480 -60 -477 0
-480 -60 -478 0
-480 -60 -479 0
-85 -55 122 0
-85 -55 158 0
-85 -55 -86 0
-85 -55 -87 0
-85 -55 -88 0
-85 -55 -89 0
-85 -55 -90 0
-121 -55 86 0
-121 -55 158 0
-121 -55 -122 0
-121 -55 -123 0
-121 -55 -124 0
-121 -55 -125 0
-121 -55 -126 0
-157 -55 86 0
-157 -55 122 0
-157 -55 -158 0
-157 -55 -159 0
-157 -55 -160 0
-157 -55 -161 0
-157 -55 -162 0
-86 -56 122 0
-86 -56 158 0
-86 -56 -85 0
-86 -56 -87 0
-86 -56 -88 0
-86 -56 -89 0
-86 -56 -90 0
-122 -56 86 0
-122 -56 158 0
-122 -56 -121 0
-122 -56 -123 0
-122 -56 -124 0
-122 -56 -125 0
-122 -56 -126 0
-158 -56 86 0
-158 -56 122 0
-158 -56 -157 0
-158 -56 -159 0
-158 -56 -160 0
-158 -56 -161 0
-158 -56 -162 0
-87 -57 122 0
-87 -57 158 0
-87 -57 -85 0
-87 -57 -86 0
-87 -57 -88 0
-87 -57 -89 0
-87 -57 -90 0
-123 -57 86 0
-123 -57 158 0
-123 -57 -121 0
-123 -57 -122 0
-123 -57 -124 0
-123 -57 -125 0
-123 -57 -126 0
-159 -57 86 0
-159 -57 122 0
-159 -57 -157 0
-159 -57 -158 0
-159 -57 -160 0
-159 -57 -161 0
-159 -57 -162 0
-88 -58 122 0
-88 -58 158 0
-88 -58 -85 0
-88 -58 -86 0
-88 -58 -87 0
-88 -58 -89 0
-88 -58 -90 0
-124 -58 86 0
-124 -58 158 0
-124 -58 -121 0
-124 -58 -122 0
-124 -58 -123 0
-124 -58 -125 0
-124 -58 -126 0
-160 -58 86 0
-160 -58 122 0
-160 -58 -157 0
-160 -58 -158 0
-160 -58 -159 0
-160 -58 -161 0
-160 -58 -162 0
-89 -59 122 0
-89 -59 158 0
-89 -59 -85 0
-89 -59 -86 0
-89 -59 -87 0
-89 -59 -88 0
-89 -59 -90 0
-125 -59 86 0
-125 -59 158 0
-125 -59 -121 0
-125 -59 -122 0
-125 -59 -123 0
-125 -59 -124 0
-125 -59 -126 0
-161 -59 86 0
-161 -59 122 0
-161 -59 -157 0
-161 -59 -158 0
-161 -59 -159 0
-161 -59 -160 0
-161 -59 -162 0
-90 -60 122 0
-90 -60 158 0
-90 -60 -85 0
-90 -60 -86 0
-90 -60 -87 0
-90 -60 -88 0
-90 -60 -89 0
-126 -60 86 0
-126 -60 158 0
-126 -60 -121 0
-126 -60 -122 0
-126 -60 -123 0
-126 -60 -124 0
-126 -60 -125 0
-162 -60 86 0
-162 -60 122 0
-162 -60 -157 0
-162 -60 -158 0
-162 -60 -159 0
-162 -60 -160 0
-162 -60 -161 0
-193 -55 230 0
-193 -55 266 0
-193 -55 -194 0
-193 -55 -195 0
-193 -55 -196 0
-193 -55 -197 0
-193 -55 -198 0
-229 -55 194 0
-229 -55 266 0
-229 -55 -230 0
-229 -55 -231 0
-229 -55 -232 0
-229 -55 -233 0
-229 -55 -234 0
-265 -55 194 0
-265 -55 230 0
-265 -55 -266 0
-265 -55 -267 0
-265 -55 -268 0
-265 -55 -269 0
-265 -55 -270 0
-194 -56 230 0
-194 -56 266 0
-194 -56 -193 0
-194 -56 -195 0
-194 -56 -196 0
-194 -56 -197 0
-194 -56 -198 0
-230 -56 194 0
-230 -56 266 0
-230 -56 -229 0
-230 -56 -231 0
-230 -56 -232 0
-230 -56 -233 0
-230 -56 -234 0
-266 -56 194 0
-266 -56 230 0
-266 -56 -265 0
-266 -56 -267 0
-266 -56 -268 0
-266 -56 -269 0
-266 -56 -270 0
-195 -57 230 0
-195 -57 266 0
-195 -57 -193 0
-195 -57 -194 0
-195 -57 -196 0
-195 -57 -197 0
-195 -57 -198 0
-231 -57 194 0
-231 -57 266 0
-231 -57 -229 0
-231 -57 -230 0
-231 -57 -232 0
-231 -57 -233 0
-231 -57 -234 0
-267 -57 194 0
-267 -57 230 0
-267 -57 -265 0
-267 -57 -266 0
-267 -57 -268 0
-267 -57 -269 0
-267 -57 -270 0
-196 -58 230 0
-196 -58 266 0
-196 -58 -193 0
-196 -58 -194 0
-196 -58 -195 0
-196 -58 -197 0
-196 -58 -198 0
-232 -58 194 0
-232 -58 266 0
-232 -58 -229 0
-232 -58 -230 0
-232 -58 -231 0
-232 -58 -233 0
-232 -58 -234 0
-268 -58 194 0
-268 -58 230 0
-268 -58 -265 0
-268 -58 -266 0
-268 -58 -267 0
-268 -58 -269 0
-268 -58 -270 0
-197 -59 230 0
-197 -59 266 0
-197 -59 -193 0
-197 -59 -194 0
-197 -59 -195 0
-197 -59 -196 0
-197 -59 -198 0
-233 -59 194 0
-233 -59 266 0
-233 -59 -229 0
-233 -59 -230 0
-233 -59 -231 0
-233 -59 -232 0
-233 -59 -234 0
-269 -59 194 0
-269 -59 230 0
-269 -59 -265 0
-269 -59 -266 0
-269 -59 -267 0
-269 -59 -268 0
-269 -59 -270 0
-198 -60 230 0
-198 -60 266 0
-198 -60 -193 0
-198 -60 -194 0
-198 -60 -195 0
-198 -60 -196 0
-198 -60 -197 0
-234 -60 194 0
-234 -60 266 0
-234 -60 -229 0
-234 -60 -230 0
-234 -60 -231 0
-234 -60 -232 0
-234 -60 -233 0
-270 -60 194 0
-270 -60 230 0
-270 -60 -265 0
-270 -60 -266 0
-270 -60 -267 0
-270 -60 -268 0
-270 -60 -269 0
-301 -55 338 0
-301 -55 374 0
-301 -55 -302 0
-301 -55 -303 0
-301 -55 -304 0
-301 -55 -305 0
-301 -55 -306 0
-337 -55 302 0
-337 -55 374 0
-337 -55 -338 0
-337 -55 -339 0
-337 -55 -340 0
-337 -55 -341 0
-337 -55 -342 0
-373 -55 302 0
-373 -55 338 0
-373 -55 -374 0
-373 -55 -375 0
-373 -55 -376 0
-373 -55 -377 0
-373 -55 -378 0
-302 -56 338 0
-302 -56 374 0
-302 -56 -301 0
-302 -56 -303 0
-302 -56 -304 0
-302 -56 -305 0
-302 -56 -306 0
-338 -56 302 0
-338 -56 374 0
-338 -56 -337 0
-338 -56 -339 0
-338 -56 -340 0
-338 -56 -341 0
-338 -56 -342 0
-374 -56 302 0
-374 -56 338 0
-374 -56 -373 0
-374 -56 -375 0
-374 -56 -376 0
-374 -56 -377 0
-374 -56 -378 0
-303 -57 338 0
-303 -57 374 0
-303 -57 -301 0
-303 -57 -302 0
-303 -57 -304 0
-303 -57 -305 0
-303 -57 -306 0
-339 -57 302 0
-339 -57 374 0
-339 -57 -337 0
-339 -57 -338 0
-339 -57 -340 0
-339 -57 -341 0
-339 -57 -342 0
-375 -57 302 0
-375 -57 338 0
-375 -57 -373 0
-375 -57 -374 0
-375 -57 -376 0
-375 -57 -377 0
-375 -57 -378 0
-304 -58 338 0
-304 -58 374 0
-304 -58 -301 0
-304 -58 -302 0
-304 -58 -303 0
-304 -58 -305 0
-304 -58 -306 0
-340 -58 302 0
-340 -58 374 0
-340 -58 -337 0
-340 -58 -338 0
-340 -58 -339 0
-340 -58 -341 0
-340 -58 -342 0
-376 -58 302 0
-376 -58 338 0
-376 -58 -373 0
-376 -58 -374 0
-376 -58 -375 0
-376 -58 -377 0
-376 -58 -378 0
-305 -59 338 0
-305 -59 374 0
-305 -59 -301 0
-305 -59 -302 0
-305 -59 -303 0
-305 -59 -304 0
-305 -59 -306 0
-341 -59 302 0
-341 -59 374 0
-341 -59 -337 0
-341 -59 -338 0
-341 -59 -339 0
-341 -59 -340 0
-341 -59 -342 0
-377 -59 302 0
-377 -59 338 0
-377 -59 -373 0
-377 -59 -374 0
-377 -59 -375 0
-377 -59 -376 0
-377 -59 -378 0
-306 -60 338 0
-306 -60 374 0
-306 -60 -301 0
-306 -60 -302 0
-306 -60 -303 0
-306 -60 -304 0
-306 -60 -305 0
-342 -60 302 0
-342 -60 374 0
-342 -60 -337 0
-342 -60 -338 0
-342 -60 -339 0
-342 -60 -340 0
-342 -60 -341 0
-378 -60 302 0
-378 -60 338 0
-378 -60 -373 0
-378 -60 -374 0
-378 -60 -375 0
-378 -60 -376 0
-378 -60 -377 0
-409 -55 446 0
-409 -55 482 0
-409 -55 -410 0
-409 -55 -411 0
-409 -55 -412 0
-409 -55 -413 0
-409 -55 -414 0
-445 -55 410 0
-445 -55 482 0
-445 -55 -446 0
-445 -55 -447 0
-445 -55 -448 0
-445 -55 -449 0
-445 -55 -450 0
-481 -55 410 0
-481 -55 446 0
-481 -55 -482 0
-481 -55 -483 0
-481 -55 -484 0
-481 -55 -485 0
-481 -55 -486 0
-410 -56 446 0
-410 -56 482 0
-410 -56 -409 0
-410 -56 -411 0
-410 -56 -412 0
-410 -56 -413 0
-410 -56 -414 0
-446 -56 410 0
-446 -56 482 0
-446 -56 -445 0
-446 -56 -447 0
-446 -56 -448 0
-446 -56 -449 0
-446 -56 -450 0
-482 -56 410 0
-482 -56 446 0
-482 -56 -481 0
-482 -56 -483 0
-482 -56 -484 0
-482 -56 -485 0
-482 -56 -486 0
-411 -57 446 0
-411 -57 482 0
-411 -57 -409 0
-411 -57 -410 0
-411 -57 -412 0
-411 -57 -413 0
-411 -57 -414 0
-447 -57 410 0
-447 -57 482 0
-447 -57 -445 0
-447 -57 -446 0
-447 -57 -448 0
-447 -57 -449 0
-447 -57 -450 0
-483 -57 410 0
-483 -57 446 0
-483 -57 -481 0
-483 -57 -482 0
-483 -57 -484 0
-483 -57 -485 0
-483 -57 -486 0
-412 -58 446 0
-412 -58 482 0
-412 -58 -409 0
-412 -58 -410 0
-412 -58 -411 0
-412 -58 -413 0
-412 -58 -414 0
-448 -58 410 0
-448 -58 482 0
-448 -58 -445 0
-448 -58 -446 0
-448 -58 -447 0
-448 -58 -449 0
-448 -58 -450 0
-484 -58 410 0
-484 -58 446 0
-484 -58 -481 0
-484 -58 -482 0
-484 -58 -483 0
-484 -58 -485 0
-484 -58 -486 0
-413 -59 446 0
-413 -59 482 0
-413 -59 -409 0
-413 -59 -410 0
-413 -59 -411 0
-413 -59 -412 0
-413 -59 -414 0
-449 -59 410 0
-449 -59 482 0
-449 -59 -445 0
-449 -59 -446 0
-449 -59 -447 0
-449 -59 -448 0
-449 -59 -450 0
-485 -59 410 0
-485 -59 446 0
-485 -59 -481 0
-485 -59 -482 0
-485 -59 -483 0
-485 -59 -484 0
-485 -59 -486 0
-414 -60 446 0
-414 -60 482 0
-414 -60 -409 0
-414 -60 -410 0
-414 -60 -411 0
-414 -60 -412 0
-414 -60 -413 0
-450 -60 410 0
-450 -60 482 0
-450 -60 -445 0
-450 -60 -446 0
-450 -60 -447 0
-450 -60 -448 0
-450 -60 -449 0
-486 -60 410 0
-486 -60 446 0
-486 -60 -481 0
-486 -60 -482 0
-486 -60 -483 0
-486 -60 -484 0
-486 -60 -485 0
-91 -55 128 0
-91 -55 164 0
-91 -55 -92 0
-91 -55 -93 0
-91 -55 -94 0
-91 -55 -95 0
-91 -55 -96 0
-127 -55 92 0
-127 -55 164 0
-127 -55 -128 0
-127 -55 -129 0
-127 -55 -130 0
-127 -55 -131 0
-127 -55 -132 0
-163 -55 92 0
-163 -55 128 0
-163 -55 -164 0
-163 -55 -165 0
-163 -55 -166 0
-163 -55 -167 0
-163 -55 -168 0
-92 -56 128 0
-92 -56 164 0
-92 -56 -91 0
-92 -56 -93 0
-92 -56 -94 0
-92 -56 -95 0
-92 -56 -96 0
-128 -56 92 0
-128 -56 164 0
-128 -56 -127 0
-128 -56 -129 0
-128 -56 -130 0
-128 -56 -131 0
-128 -56 -132 0
-164 -56 92 0
-164 -56 128 0
-164 -56 -163 0
-164 -56 -165 0
-164 -56 -166 0
-164 -56 -167 0
-164 -56 -168 0
-93 -57 128 0
-93 -57 164 0
-93 -57 -91 0
-93 -57 -92 0
-93 -57 -94 0
-93 -57 -95 0
-93 -57 -96 0
-129 -57 92 0
-129 -57 164 0
-129 -57 -127 0
-129 -57 -128 0
-129 -57 -130 0
-129 -57 -131 0
-129 -57 -132 0
-165 -57 92 0
-165 -57 128 0
-165 -57 -163 0
-165 -57 -164 0
-165 -57 -166 0
-165 -57 -167 0
-165 -57 -168 0
-94 -58 128 0
-94 -58 164 0
-94 -58 -91 0
-94 -58 -92 0
-94 -58 -93 0
-94 -58 -95 0
-94 -58 -96 0
-130 -58 92 0
-130 -58 164 0
-130 -58 -127 0
-130 -58 -128 0
-130 -58 -129 0
-130 -58 -131 0
-130 -58 -132 0
-166 -58 92 0
-166 -58 128 0
-166 -58 -163 0
-166 -58 -164 0
-166 -58 -165 0
-166 -58 -167 0
-166 -58 -168 0
-95 -59 128 0
-95 -59 164 0
-95 -59 -91 0
-95 -59 -92 0
-95 -59 -93 0
-95 -59 -94 0
-95 -59 -96 0
-131 -59 92 0
-131 -59 164 0
-131 -59 -127 0
-131 -59 -128 0
-131 -59 -129 0
-131 -59 -130 0
-131 -59 -132 0
-167 -59 92 0
-167 -59 128 0
-167 -59 -163 0
-167 -59 -164 0
-167 -59 -165 0
-167 -59 -166 0
-167 -59 -168 0
-96 -60 128 0
-96 -60 164 0
-96 -60 -91 0
-96 -60 -92 0
-96 -60 -93 0
-96 -60 -94 0
-96 -60 -95 0
-132 -60 92 0
-132 -60 164 0
-132 -60 -127 0
-132 -60 -128 0
-132 -60 -129 0
-132 -60 -130 0
-132 -60 -131 0
-168 -60 92 0
-168 -60 128 0
-168 -60 -163 0
-168 -60 -164 0
-168 -60 -165 0
-168 -60 -166 0
-168 -60 -167 0
-199 -55 236 0
-199 -55 272 0
-199 -55 -200 0
-199 -55 -201 0
-199 -55 -202 0
-199 -55 -203 0
-199 -55 -204 0
-235 -55 200 0
-235 -55 272 0
-235 -55 -236 0
-235 -55 -237 0
-235 -55 -238 0
-235 -55 -239 0
-235 -55 -240 0
-271 -55 200 0
-271 -55 236 0
-271 -55 -272 0
-271 -55 -273 0
-271 -55 -274 0
-271 -55 -275 0
-271 -55 -276 0
-200 -56 236 0
-200 -56 272 0
-200 -56 -199 0
-200 -56 -201 0
-200 -56 -202 0
-200 -56 -203 0
-200 -56 -204 0
-236 -56 200 0
-236 -56 272 0
-236 -56 -235 0
-236 -56 -237 0
-236 -56 -238 0
-236 -56 -239 0
-236 -56 -240 0
-272 -56 200 0
-272 -56 236 0
-272 -56 -271 0
-272 -56 -273 0
-272 -56 -274 0
-272 -56 -275 0
-272 -56 -276 0
-201 -57 236 0
-201 -57 272 0
-201 -57 -199 0
-201 -57 -200 0
-201 -57 -202 0
-201 -57 -203 0
-201 -57 -204 0
-237 -57 200 0
-237 -57 272 0
-237 -57 -235 0
-237 -57 -236 0
-237 -57 -238 0
-237 -57 -239 0
-237 -57 -240 0
-273 -57 200 0
-273 -57 236 0
-273 -57 -271 0
-273 -57 -272 0
-273 -57 -274 0
-273 -57 -275 0
-273 -57 -276 0
-202 -58 236 0
-202 -58 272 0
-202 -58 -199 0
-202 -58 -200 0
-202 -58 -201 0
-202 -58 -203 0
-202 -58 -204 0
-238 -58 200 0
-238 -58 272 0
-238 -58 -235 0
-238 -58 -236 0
-238 -58 -237 0
-238 -58 -239 0
-238 -58 -240 0
-274 -58 200 0
-274 -58 236 0
-274 -58 -271 0
-274 -58 -272 0
-274 -58 -273 0
-274 -58 -275 0
-274 -58 -276 0
-203 -59 236 0
-203 -59 272 0
-203 -59 -199 0
-203 -59 -200 0
-203 -59 -201 0
-203 -59 -202 0
-203 -59 -204 0
-239 -59 200 0
-239 -59 272 0
-239 -59 -235 0
-239 -59 -236 0
-239 -59 -237 0
-239 -59 -238 0
-239 -59 -240 0
-275 -59 200 0
-275 -59 236 0
-275 -59 -271 0
-275 -59 -272 0
-275 -59 -273 0
-275 -59 -274 0
-275 -59 -276 0
-204 -60 236 0
-204 -60 272 0
-204 -60 -199 0
-204 -60 -200 0
-204 -60 -201 0
-204 -60 -202 0
-204 -60 -203 0
-240 -60 200 0
-240 -60 272 0
-240 -60 -235 0
-240 -60 -236 0
-240 -60 -237 0
-240 -60 -238 0
-240 -60 -239 0
-276 -60 200 0
-276 -60 236 0
-276 -60 -271 0
-276 -60 -272 0
-276 -60 -273 0
-276 -60 -274 0
-276 -60 -275 0
-307 -55 344 0
-307 -55 380 0
-307 -55 -308 0
-307 -55 -309 0
-307 -55 -310 0
-307 -55 -311 0
-307 -55 -312 0
-343 -55 308 0
-343 -55 380 0
-343 -55 -344 0
-343 -55 -345 0
-343 -55 -346 0
-343 -55 -347 0
-343 -55 -348 0
-379 -55 308 0
-379 -55 344 0
-379 -55 -380 0
-379 -55 -381 0
-379 -55 -382 0
-379 -55 -383 0
-379 -55 -384 0
-308 -56 344 0
-308 -56 380 0
-308 -56 -307 0
-308 -56 -309 0
-308 -56 -310 0
-308 -56 -311 0
-308 -56 -312 0
-344 -56 308 0
-344 -56 380 0
-344 -56 -343 0
-344 -56 -345 0
-344 -56 -346 0
-344 -56 -347 0
-344 -56 -348 0
-380 -56 308 0
-380 -56 344 0
-380 -56 -379 0
-380 -56 -381 0
-380 -56 -382 0
-380 -56 -383 0
-380 -56 -384 0
-309 -57 344 0
-309 -57 380 0
-309 -57 -307 0
-309 -57 -308 0
-309 -57 -310 0
-309 -57 -311 0
-309 -57 -312 0
-345 -57 308 0
-345 -57 380 0
-345 -57 -343 0
-345 -57 -344 0
-345 -57 -346 0
-345 -57 -347 0
-345 -57 -348 0
-381 -57 308 0
-381 -57 344 0
-381 -57 -379 0
-381 -57 -380 0
-381 -57 -382 0
-381 -57 -383 0
-381 -57 -384 0
-310 -58 344 0
-310 -58 380 0
-310 -58 -307 0
-310 -58 -308 0
-310 -58 -309 0
-310 -58 -311 0
-310 -58 -312 0
-346 -58 308 0
-346 -58 380 0
-346 -58 -343 0
-346 -58 -344 0
-346 -58 -345 0
-346 -58 -347 0
-346 -58 -348 0
-382 -58 308 0
-382 -58 344 0
-382 -58 -379 0
-382 -58 -380 0
-382 -58 -381 0
-382 -58 -383 0
-382 -58 -384 0
-311 -59 344 0
-311 -59 380 0
-311 -59 -307 0
-311 -59 -308 0
-311 -59 -309 0
-311 -59 -310 0
-311 -59 -312 0
-347 -59 308 0
-347 -59 380 0
-347 -59 -343 0
-347 -59 -344 0
-347 -59 -345 0
-347 -59 -346 0
-347 -59 -348 0
-383 -59 308 0
-383 -59 344 0
-383 -59 -379 0
-383 -59 -380 0
-383 -59 -381 0
-383 -59 -382 0
-383 -59 -384 0
-312 -60 344 0
-312 -60 380 0
-312 -60 -307 0
-312 -60 -308 0
-312 -60 -309 0
-312 -60 -310 0
-312 -60 -311 0
-348 -60 308 0
-348 -60 380 0
-348 -60 -343 0
-348 -60 -344 0
-348 -60 -345 0
-348 -60 -346 0
-348 -60 -347 0
-384 -60 308 0
-384 -60 344 0
-384 -60 -379 0
-384 -60 -380 0
-384 -60 -381 0
-384 -60 -382 0
-384 -60 -383 0
-415 -55 452 0
-415 -55 488 0
-415 -55 -416 0
-415 -55 -417 0
-415 -55 -418 0
-415 -55 -419 0
-415 -55 -420 0
-451 -55 416 0
-451 -55 488 0
-451 -55 -452 0
-451 -55 -453 0
-451 -55 -454 0
-451 -55 -455 0
-451 -55 -456 0
-487 -55 416 0
-487 -55 452 0
-487 -55 -488 0
-487 -55 -489 0
-487 -55 -490 0
-487 -55 -491 0
-487 -55 -492 0
-416 -56 452 0
-416 -56 488 0
-416 -56 -415 0
-416 -56 -417 0
-416 -56 -418 0
-416 -56 -419 0
-416 -56 -420 0
-452 -56 416 0
-452 -56 488 0
-452 -56 -451 0
-452 -56 -453 0
-452 -56 -454 0
-452 -56 -455 0
-452 -56 -456 0
-488 -56 416 0
-488 -56 452 0
-488 -56 -487 0
-488 -56 -489 0
-488 -56 -490 0
-488 -56 -491 0
-488 -56 -492 0
-417 -57 452 0
-417 -57 488 0
-417 -57 -415 0
-417 -57 -416 0
-417 -57 -418 0
-417 -57 -419 0
-417 -57 -420 0
-453 -57 416 0
-453 -57 488 0
-453 -57 -451 0
-453 -57 -452 0
-453 -57 -454 0
-453 -57 -455 0
-453 -57 -456 0
-489 -57 416 0
-489 -57 452 0
-489 -57 -487 0
-489 -57 -488 0
-489 -57 -490 0
-489 -57 -491 0
-489 -57 -492 0
-418 -58 452 0
-418 -58 488 0
-418 -58 -415 0
-418 -58 -416 0
-418 -58 -417 0
-418 -58 -419 0
-418 -58 -420 0
-454 -58 416 0
-454 -58 488 0
-454 -58 -451 0
-454 -58 -452 0
-454 -58 -453 0
-454 -58 -455 0
-454 -58 -456 0
-490 -58 416 0
-490 -58 452 0
-490 -58 -487 0
-490 -58 -488 0
-490 -58 -489 0
-490 -58 -491 0
-490 -58 -492 0
-419 -59 452 0
-419 -59 488 0
-419 -59 -415 0
-419 -59 -416 0
-419 -59 -417 0
-419 -59 -418 0
-419 -59 -420 0
-455 -59 416 0
-455 -59 488 0
-455 -59 -451 0
-455 -59 -452 0
-455 -59 -453 0
-455 -59 -454 0
-455 -59 -456 0
-491 -59 416 0
-491 -59 452 0
-491 -59 -487 0
-491 -59 -488 0
-491 -59 -489 0
-491 -59 -490 0
-491 -59 -492 0
-420 -60 452 0
-420 -60 488 0
-420 -60 -415 0
-420 -60 -416 0
-420 -60 -417 0
-420 -60 -418 0
-420 -60 -419 0
-456 -60 416 0
-456 -60 488 0
-456 -60 -451 0
-456 -60 -452 0
-456 -60 -453 0
-456 -60 -454 0
-456 -60 -455 0
-492 -60 416 0
-492 -60 452 0
-492 -60 -487 0
-492 -60 -488 0
-492 -60 -489 0
-492 -60 -490 0
-492 -60 -491 0
c at_least_1_transition_from_any_state
61 97 133 62 98 134 63 99 135 64 100 136 65 101 137 66 102 138 0
169 205 241 170 206 242 171 207 243 172 208 244 173 209 245 174 210 246 0
277 313 349 278 314 350 279 315 351 280 316 352 281 317 353 282 318 354 0
385 421 457 386 422 458 387 423 459 388 424 460 389 425 461 390 426 462 0
73 109 145 74 110 146 75 111 147 76 112 148 77 113 149 78 114 150 0
181 217 253 182 218 254 183 219 255 184 220 256 185 221 257 186 222 258 0
289 325 361 290 326 362 291 327 363 292 328 364 293 329 365 294 330 366 0
397 433 469 398 434 470 399 435 471 400 436 472 401 437 473 402 438 474 0
79 115 151 80 116 152 81 117 153 82 118 154 83 119 155 84 120 156 0
187 223 259 188 224 260 189 225 261 190 226 262 191 227 263 192 228 264 0
295 331 367 296 332 368 297 333 369 298 334 370 299 335 371 300 336 372 0
403 439 475 404 440 476 405 441 477 406 442 478 407 443 479 408 444 480 0
85 121 157 86 122 158 87 123 159 88 124 160 89 125 161 90 126 162 0
193 229 265 194 230 266 195 231 267 196 232 268 197 233 269 198 234 270 0
301 337 373 302 338 374 303 339 375 304 340 376 305 341 377 306 342 378 0
409 445 481 410 446 482 411 447 483 412 448 484 413 449 485 414 450 486 0
91 127 163 92 128 164 93 129 165 94 130 166 95 131 167 96 132 168 0
199 235 271 200 236 272 201 237 273 202 238 274 203 239 275 204 240 276 0
307 343 379 308 344 380 309 345 381 310 346 382 311 347 383 312 348 384 0
415 451 487 416 452 488 417 453 489 418 454 490 419 455 491 420 456 492 0
c rejected_state_has_no_children
-67 0
-103 0
-139 0
-175 0
-211 0
-247 0
-283 0
-319 0
-355 0
-391 0
-427 0
-463 0
-68 0
-104 0
-140 0
-176 0
-212 0
-248 0
-284 0
-320 0
-356 0
-392 0
-428 0
-464 0
-69 0
-105 0
-141 0
-177 0
-213 0
-249 0
-285 0
-321 0
-357 0
-393 0
-429 0
-465 0
-70 0
-106 0
-142 0
-178 0
-214 0
-250 0
-286 0
-322 0
-358 0
-394 0
-430 0
-466 0
-71 0
-107 0
-143 0
-179 0
-215 0
-251 0
-287 0
-323 0
-359 0
-395 0
-431 0
-467 0
-72 0
-108 0
-144 0
-180 0
-216 0
-252 0
-288 0
-324 0
-360 0
-396 0
-432 0
-468 0
p cnf 492 16220
